1005 128
161 0.23866919 0.2294068 -0.14029689 0.11506277 0.16406223 0.112687156 -0.03054463 -0.24778363 0.064819194 -0.098217055 -0.010588227 0.14976701 0.0044023246 -0.061654415 -0.0010880335 -0.23789605 -0.20062433 0.1492756 -0.24608748 -0.19873866 0.01622278 -0.03196471 -0.051780302 0.12161893 0.033749145 0.2123495 0.13690421 0.1637293 0.058071993 -0.23718573 0.21349482 -0.011479105 -0.2712923 -0.048619725 -0.09245768 0.12702939 0.07677308 0.09108187 0.152199 0.34017026 0.21030498 0.10464892 0.099843144 -0.18216012 -0.13127539 0.29196015 0.01563579 0.12457238 0.07824546 0.2844269 -0.04915864 -0.11568247 0.19285373 0.20610479 0.1592999 0.16997895 0.063565865 0.13754456 -0.111311525 0.087170415 0.060220983 -0.36558083 -0.24743702 -0.24337836 -0.014990969 -0.1872653 -0.08959459 0.09168545 0.11428569 0.097836 0.0092299525 0.06882599 0.093026415 -0.11396165 0.14058256 -0.015249582 0.05494854 0.18954775 0.15294051 -0.022478439 0.017793564 0.17842314 -0.21059145 -0.12883319 -0.22979982 0.13949417 -0.048422564 -0.13055742 0.020518357 -0.12931938 0.10332113 -0.06163359 -0.23407023 -0.14016412 -0.023884298 -0.0224334 0.31444028 -0.19969402 0.077690735 0.10326602 0.030568039 -0.037624784 -0.000107315354 0.0026801948 -0.14190648 -0.22532687 0.2610306 -0.15309261 0.034505535 0.13640851 0.3261326 0.17465249 0.021497468 0.014212677 0.043172404 0.22450407 -0.21315445 0.18785493 0.09727775 -0.06615369 0.1734428 0.091560714 0.042599633 -0.07104155 -0.10933162 0.16562755 -0.010854947 0.07650019
122 0.104896545 -0.04456365 0.035779722 0.035517976 0.0135650085 -0.22016616 -0.23654722 -0.17315508 0.033956688 0.19515567 -0.13014387 0.19590673 0.25363636 0.0025864611 -0.30331555 -0.32165757 -0.38729647 -0.025761366 0.19694233 0.05847947 0.00039312872 -0.055461664 -0.18787564 -0.17207891 0.055621456 0.021616448 0.121298045 0.06632441 -0.1753226 -0.045170803 0.24590363 -0.07613205 0.02856823 -0.11442828 0.016938668 -0.057208735 -0.010408002 0.1274761 -0.13702177 0.011739279 0.0067769377 0.22100616 0.013647374 -0.19715028 -0.2533545 0.4144713 -0.116783306 -0.3164466 -0.0020507688 0.19297267 -0.063964 0.019247204 -0.16735762 0.17566174 -0.05097883 -0.1911493 -0.22735472 0.2122324 -0.12815735 -0.14315774 0.16141845 0.05218085 -0.028641755 -0.13358288 -0.005022813 0.14191635 -0.39737836 -0.099381365 -0.026884254 0.14591056 -0.028101195 0.30482796 -0.02463141 0.1190004 -0.019571798 -0.06765085 -0.014374848 0.034151714 0.17807868 0.03953437 0.017283339 0.18883401 0.021962283 0.06269941 -0.07076318 0.0583381 -0.089074746 -0.2830496 0.21946225 0.091344014 0.061006382 -0.12110712 0.30866253 -0.08083879 0.070687175 -0.29639405 -0.019719841 -0.056576893 -0.048291776 0.08243348 -0.15644047 -0.124489084 -0.16934018 0.31542367 0.15716404 -0.026245141 0.2587296 0.25808424 0.16213395 -0.14849155 0.13113935 0.13787976 0.016694022 0.000804802 -0.083662406 0.13664235 -0.3643934 0.4529906 0.008126107 -0.25550556 0.11720871 -0.06359916 -0.0070979916 -0.08568968 -0.20404932 -0.17574266 -0.022144457 -0.4309689
83 0.18088444 -0.051362805 -0.11222631 0.054863393 -0.04039919 -0.036478195 -0.17018375 -0.36008936 0.110092156 0.06424 0.15630704 0.23341125 0.1386479 -0.046243247 -0.21356839 -0.2326458 -0.2886948 -0.07032979 -0.05055902 0.075035 0.08704556 0.14630634 0.05772026 -0.28929222 0.15068324 0.08167224 0.003320471 0.046263598 0.25896922 -0.22551458 0.09920752 0.038403794 -0.3147152 0.007762723 0.02644177 -0.08922719 0.10718449 0.020645663 0.07909354 0.37498572 0.010672279 0.142006 -0.010722129 -0.23922375 -0.4279997 0.33074316 0.015196114 -0.19698913 -0.13194117 0.37440854 -0.24852096 -0.017075729 0.025713248 0.21978423 -0.20027521 0.042802464 0.066727735 0.19104606 -0.24593952 0.03157541 0.40373966 0.006840135 0.09800227 -0.048100114 0.05431971 0.092712075 -0.045263894 -0.081256896 -0.13996692 0.09062636 0.06538409 0.30892166 0.04387799 0.07113283 0.11715336 0.033848133 -0.14507231 0.040726874 0.18142632 -0.12616073 0.018177448 0.34029 0.10205502 -0.11088738 -0.1325744 0.1316033 0.08391588 -0.087973624 0.11029164 -0.05043754 0.0016702479 -0.038295697 0.1454361 -0.035957176 0.0013171744 -0.23587899 -0.06368535 -0.15016875 -0.006236856 0.13849121 -0.024965165 -0.1389252 -0.054062422 0.24192421 0.067732215 -0.14398949 0.23699921 0.11058591 -0.046427287 -0.060874075 0.14163673 0.21829876 -0.036605295 0.16953102 -0.037224572 0.084765345 -0.32718256 0.27547485 -0.106647894 -0.08257676 0.20822845 -0.21032727 0.18931162 0.19442742 -0.3325248 -0.05421911 0.038678408 -0.4332991
108 -0.0085949795 0.14523076 -0.029436989 -0.020867897 -0.110489115 0.07212748 0.08100375 -0.36352482 -0.22431923 0.25943872 0.16855848 -0.026108883 0.22095062 -0.17481193 0.111344665 -0.16318437 -0.048889384 0.26528832 -0.16717988 -0.017330056 -0.13682632 -0.16007848 0.1994176 -0.15528691 0.15915015 0.031278707 0.0100185145 -0.019376915 -0.08912942 -0.33493605 0.20700116 0.18646933 -0.017501563 -0.061367564 0.067139946 0.046626087 -0.14598939 -0.14233871 0.04405319 0.3270746 0.21043664 0.23133463 0.1650887 -0.14464581 -0.26469854 0.050679784 -0.20775224 -0.010753283 -0.058056682 0.34220022 -0.14271416 0.16206369 -0.030937295 0.18852487 -0.08882173 0.19856623 0.01942637 0.050042167 -0.11188542 -0.06705671 -0.04209801 -0.09105683 0.008069539 -0.15318748 0.24458891 -0.05172532 -0.1431817 -0.03273142 0.0389697 0.23292889 -0.0776752 0.06865978 0.14495784 -0.4255232 -0.08008083 0.046242036 0.12091203 0.21309243 0.09229323 0.06282837 -0.3787728 0.074114114 -0.07825282 -0.10385284 0.12965144 0.18078257 0.10180312 -0.17065822 0.33048123 -0.05650558 0.27618757 0.059707858 0.28023884 -0.13441604 -0.20223321 0.010217013 -0.05662542 -0.08282631 -0.15708461 0.11140686 -0.07257197 0.12184688 0.10351579 -0.30189478 -0.10683152 -0.17462751 0.066750355 -0.17932798 -0.022488868 0.15375897 0.31961817 0.24922095 -0.20840095 0.07719081 -0.047405913 0.1637573 -0.32104585 0.24963848 0.011424002 -0.28294083 0.07294584 0.10901418 0.31242052 -0.12969391 -0.27599984 0.1955033 0.2995494 -0.19726664
87 -0.100667424 -0.057002544 0.30686298 0.075211525 0.14460191 -0.011031069 -0.17701612 -0.06720466 0.1409652 0.30412495 -0.21797967 0.10367408 0.038694795 0.088888004 0.08917132 -0.038794618 0.16378208 -0.19866523 0.109917805 -0.2896033 0.045367695 -0.06099741 -0.09994997 -0.12043247 0.24945267 0.24667175 0.15104757 0.04210584 -0.006783475 -0.18369147 0.16542377 0.0041328906 -0.64577484 -0.1001838 0.039927777 0.38657415 0.15615252 -0.1120781 0.18487507 -0.17391843 -0.088585466 0.17665456 -0.22083811 -0.16279064 0.224106 -0.036998384 -0.10882033 -0.061549444 0.44709912 0.3173268 -0.39825958 -0.4108121 -0.17279796 0.15354396 -0.4356493 0.0107743 -0.01526444 -0.1082478 -0.010930864 -0.16399059 0.14161864 -0.22769786 -0.10259833 -0.4960918 0.42800474 0.102260776 -0.24399815 -0.3102469 -0.24466054 -0.031249912 0.06383485 0.19833295 0.09010521 0.16942066 -0.012424453 -0.20208146 0.17575856 -0.14585568 0.032381706 -0.052460264 -0.1937316 -0.07862168 0.069895245 -0.083931796 -0.019154167 0.25428656 -0.39609107 -0.06026601 -0.051978864 0.24552391 0.11304828 -0.22189039 0.026439572 -0.05442992 -0.027710676 -0.019629413 0.116186164 0.019207636 -0.1680681 -0.029968726 -0.20572186 0.28847915 -0.045735877 0.033607528 -0.044380065 -0.062252313 0.055776343 -0.027960142 0.01998744 0.07251129 0.06932055 0.0580652 -0.122730054 -0.06488244 -0.21290678 -0.04888155 -0.31667063 -0.0911029 0.077009805 -0.008595284 -0.09726386 -0.12446304 0.065475464 -0.34739605 -0.09288325 0.124582104 0.30372638 -0.31300244
63 0.18478191 0.13385646 0.31860644 0.18198536 0.259901 0.25639653 -0.003570037 -0.26489985 0.13909805 0.3847486 0.07216341 0.0178504 0.11315728 -0.12030589 0.27147406 -0.32566866 0.06623455 0.29858464 0.056801613 0.005086601 -0.14876825 -0.29903895 -0.1083858 -0.06827157 0.16529116 0.0280216 0.23689257 0.0464365 -0.1999603 -0.29301563 0.033990256 -0.13101226 0.021474056 -0.2100286 0.18488099 0.08059057 0.037707243 -0.1690096 0.16299872 0.21034029 0.1466963 -0.029127052 0.11134829 -0.2498469 -0.0091471905 0.10649839 -0.06429433 -0.16604334 0.00019521223 0.26691082 -0.031543896 -0.20625967 -0.04786541 0.08651065 -0.23645689 0.056865525 0.041960675 -0.024122171 0.029175248 0.0026570738 -0.13522859 -0.09950357 -0.052804895 -0.028308494 -0.1845389 0.19959605 -0.24026395 -0.12747881 -0.037652474 0.18552317 0.09466805 0.17425491 0.1569571 -0.18673743 0.015645217 -0.29761192 0.044541415 0.10466741 0.19880506 -0.05363825 -0.4122006 -0.25963452 -0.10753654 -0.1652343 0.19795856 0.35907713 -0.20249526 0.004320517 0.19821025 -0.13355912 0.2515806 -0.083976455 0.23002572 -0.018902052 -0.2384689 0.00076510187 0.014587301 -0.072336316 -0.08470839 0.13812207 -0.061193787 -0.002928649 0.23286715 0.0020899249 -0.10092265 -0.25441682 0.2524074 -0.027717575 -0.025941709 0.053075243 0.33497486 0.17308572 0.23598103 -0.24596544 -0.23913273 0.030647134 -0.18882126 0.06853639 0.03891354 -0.35180154 0.0936291 -0.22013941 0.08454951 -0.09757083 -0.15441573 0.0067425566 0.27411187 -0.29758587
435 -0.013751538 -0.086391196 -0.004500856 0.06647423 0.017188335 0.051083364 0.019154176 0.022618923 -0.12469449 0.28985685 -0.20832926 0.22762172 0.12844929 -0.3219236 -0.12615183 -0.021523986 -0.07387351 -0.09696714 0.15300764 0.005226227 0.021271452 -0.22278339 0.07415871 -0.14473642 -0.108159475 -0.11730146 -0.16261359 0.041104745 -0.23391154 -0.16960846 0.20262681 -0.06444438 0.036116697 -0.25155002 0.23841186 0.017529728 -0.32365853 0.0114159165 0.057077475 0.11907201 0.25536898 0.19435428 -0.06799831 -0.2885516 -0.24442048 -0.055363584 -0.06496563 -0.10237813 -0.11760019 -0.20922197 -0.15827258 0.3327586 0.11529561 0.05114566 -0.35807577 0.19825725 -0.10158801 0.0068310117 -0.03689632 -0.24986656 0.111004256 0.06820289 -0.03461754 -0.28507403 -0.1413242 0.07896814 -0.27334532 0.03459656 -0.0908203 0.05187088 0.018419055 0.06629382 0.3425012 -0.05291315 0.2030402 0.044353925 0.31659985 0.19755946 -0.044740185 -0.083860636 0.22714257 -0.072175875 -0.33743468 -0.020131718 0.06725478 0.29966927 -0.1041294 -0.41339874 -0.08462606 -0.23176284 0.043347448 0.16744636 0.12230009 -0.19465637 0.20246114 0.039422218 0.22966146 0.38678238 -0.12135744 0.13410458 -0.2108325 0.17245193 0.26903263 0.05781119 -0.19355142 -0.03723454 0.10485957 -0.03574658 0.13769592 0.3734512 0.2268879 -0.039203893 -0.14070646 -0.07449161 -0.17878275 0.07878704 0.16297854 0.27089736 0.1800249 0.12029007 0.1478657 0.022755306 -0.022296656 -0.5362456 -0.15512365 -0.12230569 -0.11815292 0.00012198233
14 -0.34271452 -0.15562895 0.11378373 0.27854005 -0.22748365 0.0878656 0.14893346 -0.12317685 -0.1665822 -0.122152634 -0.10318807 0.30200675 -0.13987651 -0.18519515 0.020966167 0.03004362 -0.09068561 -0.00023260745 -0.031173674 0.05376805 0.02950212 0.15663801 0.2954871 -0.28430432 0.006317701 -0.40455985 -0.3522409 0.04304119 -0.2941479 -0.1966114 0.21845257 0.13764665 -0.23499851 0.047610063 -0.23028801 -0.073808655 0.2663928 0.028568804 -0.13115433 0.39634323 0.106868364 0.06105397 0.10105665 -0.090740085 0.12809414 -0.026955096 0.09800517 -0.27006993 0.35372546 0.38194525 -0.017534364 -0.44471943 0.32233593 0.043821376 -0.046029124 -0.07561481 -0.112676024 0.27688992 -0.024903847 -0.48568782 0.09571501 -0.394452 0.08361823 -0.21903494 0.064698756 0.53314286 -0.13095754 -0.1250658 -0.28218412 -0.021277767 -0.21968634 -0.06946519 0.05614128 -0.051781856 0.10816161 -0.0069595403 -0.06890555 0.052027706 0.055817794 0.1379829 -0.2586402 0.089198954 -0.23907216 0.25070715 -0.23584637 0.43533972 -0.3279225 -0.26487735 0.27876344 0.077996135 -0.09292814 -0.16139735 -0.12308841 0.23608765 -0.16404425 0.08180767 -0.2679518 -0.2589441 0.38170412 0.22756313 -0.19077204 0.28115407 -0.11494523 -0.045826606 -0.42388612 -0.07799735 0.13854644 0.15131915 0.054116912 0.2088018 0.27249852 -0.1644888 0.21677355 -0.13193594 0.37630808 -0.21200219 0.16221951 0.1355816 -0.27801475 -0.17830104 -0.06784894 0.22446552 -0.13046516 -0.36713645 -0.0043556825 0.18954453 -0.14249015 -0.102719896
6 -0.03238339 0.060187537 -0.101515815 -0.011046286 -0.32090583 -0.36428827 0.3298726 0.18380179 0.46176413 0.011942835 -0.16566506 -0.036622837 0.26600105 -0.14531152 -0.37612537 -0.13897906 0.41110834 -0.15724367 -0.10117243 -0.11050597 -0.06753955 -0.15079664 -0.032228462 -0.06625501 0.032284204 -0.061636005 0.102657035 0.038650677 0.19814317 0.0808175 0.07595423 0.13947102 -0.22122574 0.024051614 -0.1020065 0.07729196 -0.045376558 0.06483377 -0.554966 0.13574201 -0.056642175 0.10516138 -0.050764196 0.26502293 0.16319294 0.51961255 -0.002246061 0.32732004 0.5459702 0.0074308137 -0.021809366 -0.116049096 -0.1917415 -0.080428205 0.40025362 0.3825503 -0.075086825 -0.078807965 0.13666777 -0.25202295 0.2032446 -0.083152756 -0.22885981 -0.17334095 0.06959684 0.2820007 -0.13401301 -0.13392115 -0.26091048 0.019885257 0.3438924 0.17990327 0.039365444 -0.24583058 -0.07352578 -0.27261195 0.22704981 0.3125043 0.116382435 0.22124296 -0.27713418 0.29787377 -0.19106913 -0.18746378 0.0013700834 -0.12740473 0.02754717 0.11458341 -0.247214 0.1563741 0.6476429 0.36373007 -0.22134939 0.027904542 -0.22093934 0.12824507 0.087075524 -0.24491313 0.08598945 0.10342483 -0.029003162 -0.20569272 0.20126107 0.2124654 -0.15367018 0.041408084 0.07497796 0.27106398 0.28611162 0.3943772 0.3016513 0.027054738 -0.2832459 -0.13797472 0.08617012 0.113160305 -0.046012286 -0.019670945 0.19120194 -0.30384588 0.00648945 0.36659288 -0.09512879 -0.5452282 -0.19096285 0.09053087 0.06680265 -0.5726736
167 0.38829982 -0.2268006 0.10551141 0.106788635 0.20140123 0.3448852 -0.06787359 -0.1046017 0.29698533 0.09893583 -0.31051067 -0.17793737 0.14805187 0.15225744 -0.18762381 -0.30813807 0.025900347 0.10799563 -0.1996651 -0.32047632 0.1748109 -0.09433908 0.16904941 0.24424298 -0.060652856 0.39677766 0.15079348 0.1396405 -0.159702 -0.39237043 0.04818056 -0.233739 0.040275514 0.1726022 0.08336241 0.12361749 0.1280785 0.0038887544 0.45708922 0.30882394 0.42669943 0.24025884 0.2269864 0.15850471 0.0403273 0.11667617 0.18125948 -0.10976059 0.38927567 -0.11584294 0.024197716 -0.13436106 -0.032345917 -0.031640187 -0.15621214 -0.15819746 -0.28365162 0.026048444 -0.08717631 -0.120808184 -0.059083547 -0.053830184 0.025506912 -0.083579145 -0.4901644 -0.13425793 0.052847784 0.07138647 0.028963165 -0.05850514 -0.1548637 0.12305316 0.0987621 0.058379795 0.08699601 -0.27642858 0.064157225 -0.055921342 0.0845682 -0.3732584 0.11067854 -0.043565307 -0.33689505 -0.17080854 -0.16549109 0.21046634 0.1975846 0.0347369 0.09601595 -0.0110408375 0.092194796 0.2572041 0.08943565 -0.082030065 -0.0617859 0.28882104 0.12369458 -0.01606801 -0.016345063 0.3168311 0.06877426 -0.11051432 -0.01731274 -0.04310984 -0.020423243 -0.1894785 0.09904228 0.15225677 0.11947499 -0.07398841 0.38967773 0.13375722 0.09986772 0.23317526 0.14453456 0.27530992 -0.31936613 -0.13570917 -0.057576213 0.08981105 0.19356768 0.21694928 0.28130218 -0.4088875 -0.024676248 -0.039072033 -0.30328548 -0.059912615
65 -0.036131617 0.2649171 -0.17017448 0.21075527 0.12107191 0.16245392 0.04823153 0.08624482 0.40233156 0.09621491 -0.19655858 0.30875275 0.23782091 -0.019773357 -0.6123728 -0.08566656 0.24268478 0.35785004 -0.02863493 -0.0988048 0.09645842 0.21062014 -0.048771236 -0.025670195 0.1379204 0.20666647 -0.19925688 -0.08121358 0.16594519 0.09546039 -0.06012923 -0.038086146 -0.25919944 -0.056047574 -0.3584115 -0.008999225 0.038101427 -0.4446269 -0.09224955 0.2756193 0.007213079 0.08542633 -0.0047417944 -0.027383951 0.17251188 0.17748941 0.062155437 0.12987895 0.08179932 0.46677893 -0.27964368 -0.09549225 0.10911377 -0.100938655 0.01747949 -0.14236334 0.21741876 0.14926709 0.011250015 -0.13217045 0.20751181 0.20735648 -0.2072596 0.35853976 0.094393134 0.42452678 0.11952814 -0.19874272 -0.27604023 -0.12429654 0.24445891 0.082846284 0.42078605 0.016783392 -0.047240924 -0.14321698 0.43580905 0.49547222 0.44104636 -0.16928144 0.00070006 -0.04625255 -0.23534897 0.0031609067 0.00065795565 -0.09491593 0.112987325 -0.24686314 -0.098389804 0.16621271 -0.18665479 0.27781454 0.034596615 -0.22879238 -0.013780922 0.22420973 0.047254954 -0.0016520803 -0.1664022 0.3254194 -0.3260845 -0.07113293 -0.03891579 0.13347247 0.11082029 -0.2970819 -0.105258316 -0.1089025 0.27885255 0.003383494 0.18200932 -0.07163234 -0.28645113 -0.03418182 0.22007313 0.14077926 0.23125696 0.18645024 -0.06022883 0.012912676 0.3292562 0.24997404 -0.26952946 -0.3651846 -0.13928331 5.0863062e-05 0.35568613 -0.1481084
184 0.057492673 0.1347388 0.0050544785 0.055887047 0.0071816663 -0.07055432 0.119169556 -0.11841675 0.069156565 0.35148585 -0.18369676 0.19385047 0.13309675 -0.175898 -0.20478706 -0.20605624 0.40534568 0.13323359 -0.105836734 -0.008614057 0.35091263 0.1803572 0.23753664 -0.10014065 -0.11265332 -0.14013296 -0.13093418 0.14802726 0.0048720166 -0.12216358 0.20954195 -0.20147637 0.024553075 -0.13985123 0.0077335993 -0.006214795 -0.19750291 0.14898168 -0.08073011 0.22027522 0.24060477 0.103931874 0.15585075 0.0584389 0.10430177 -0.0257464 0.07559856 -0.24963525 0.13374515 0.40273133 0.1849904 -0.16815531 0.14484733 -0.14971554 -0.012786117 0.40856904 -0.069870725 0.057015657 -0.13629441 -0.39923525 0.17525531 0.21550052 -0.08487676 0.12812959 -0.008064108 -0.009059309 -0.21688685 0.09967141 -0.032886658 -0.015793132 -0.045635898 -0.300691 0.42305458 -0.12853283 -0.13821118 0.35106605 -0.23152845 0.18615045 0.081261545 -0.34149027 -0.03214775 -0.24030977 -0.21305959 0.18976952 -0.15752397 0.10275814 0.15132798 -0.0917572 -0.06639725 -0.130439 0.27741432 -0.27397555 0.33507022 -0.011399932 -0.05734714 -0.1047484 -0.0087992335 -0.059256043 0.23685166 0.16580889 0.2884076 0.29857194 0.34525612 0.20167091 0.033206485 -0.07317528 0.08348538 0.09918911 0.3094007 0.13060391 -0.22803858 0.16230126 -0.1258561 0.18737291 -0.041206993 0.00805723 -0.21490921 0.2221736 -0.0061361883 -0.1442795 -0.028961338 0.12946482 0.1603029 -0.2757778 -0.056365542 -0.092258416 -0.04977503 -0.12876573
250 0.08333794 0.1689291 -0.003301598 0.22977176 -0.31046486 0.04986542 -0.0689634 -0.41914335 0.013972677 0.40273649 -0.058870718 0.0631859 -0.19425908 -0.20698434 -0.27336264 -0.11901026 -0.08244119 0.16982837 0.28020728 0.30265597 0.09847332 0.0070707877 -0.09459739 -0.15367608 0.1499542 0.117740914 -0.007665549 -0.10950676 -0.26155528 -0.09272756 0.24511985 0.009491505 -0.19162065 -0.15136464 -0.028062155 0.070621654 -0.025592819 0.13039657 -0.018931134 -0.09724761 -0.08511294 0.10841371 0.03740415 0.07974895 -0.02912218 0.3432998 0.19276461 -0.09528411 -0.47477132 -0.22893481 -0.06784207 -0.012251634 -0.0305018 0.09357448 -0.28316304 0.10192791 0.026166854 -0.023980394 -0.1567228 -0.075655065 0.13582243 0.095763594 -0.031545926 0.03276557 -0.1452781 -0.009363069 0.043652292 -0.07607109 -0.21072274 0.24449024 0.20230386 -0.10583816 0.0928789 -0.40933096 0.05892431 -0.2122712 -0.027128888 -0.058880553 -0.06889038 -0.23916025 -0.059788413 0.07123531 -0.35939318 -0.03771591 -0.1033591 0.24738026 0.3064709 -0.12600905 -0.001229547 0.03190803 0.106797226 -0.12668975 0.18442924 -0.001506494 0.2905618 -0.029135376 -0.04726893 -0.13665995 0.063939355 -0.013939919 0.037784282 -0.15257071 0.21445021 0.058124926 -0.16761026 -0.04534994 0.06463652 -0.016293222 0.25187868 -0.06597046 0.16814078 0.09238933 -0.1272722 0.28698656 -0.17376365 -0.113600545 -0.21657738 0.22327621 0.22953962 -0.18163943 0.12378034 -0.16549148 0.0018146394 -0.25872228 -0.19808154 -0.064362936 -0.15145479 -0.17970586
130 -0.2951853 0.19199231 0.30540282 0.004844894 -0.16007955 0.16030319 0.05625264 0.09955842 -0.09288455 -0.007870324 0.15405452 -0.08098036 -0.070092194 -0.17815444 -0.012647329 -0.06386602 -0.44506353 -0.056997966 -0.04585221 0.32033136 0.22999026 0.18261853 -0.09526592 -0.2284719 0.08238534 -0.27742448 -0.1515516 0.301491 0.12095895 -0.29398513 0.36837348 0.09926601 0.2678419 0.03895364 -0.08153982 -0.03623824 -0.16028833 -0.024623724 -0.08917304 -0.0011341282 -0.07351808 0.3980912 0.09194055 -0.010974567 -0.1057582 0.11771223 0.34936953 -0.18240924 0.12038038 0.11735637 0.039076883 -0.049730975 0.0143486 0.29822052 -0.38501227 0.12237479 -0.5007496 -0.1471208 -0.107872844 -0.3284111 -0.09527234 0.11027382 0.041648947 -0.34601745 -0.10541651 -0.048069086 -0.13924335 -0.0052206656 -0.056036666 0.16799603 0.1256952 0.14555907 0.14535545 -0.13998854 0.037526175 0.030494545 0.04031745 0.16291416 0.2950971 -0.3112053 -0.10893304 -0.12616722 -0.022019284 0.08992637 -0.10285887 0.20733996 0.017220354 -0.09042222 -0.18173485 -0.12906152 0.005304457 -0.0076606553 -0.21951964 0.12675215 0.08927125 0.36502415 -0.30308577 -0.19472119 -0.00053700176 0.26007676 0.16976802 0.08333254 0.20646963 0.1487671 0.120081395 -0.00636626 0.10496269 0.09672533 0.035747774 0.3586652 0.040822625 0.0057036653 -0.23518732 0.2351181 0.04437697 -0.09953153 -0.20897307 0.24420853 0.0005574852 -0.24895056 0.17989555 0.2862789 0.22351664 -0.17500252 -0.035989475 -0.19078071 0.16833046 -0.1412632
534 0.04873548 0.20460872 0.17563416 0.15364477 0.063046485 -0.3816206 -0.10522207 -0.060165863 -0.11817697 0.2679578 -0.16044128 0.29392567 -0.030448414 -0.26063126 0.35389507 0.21449102 -0.11374129 0.18987387 -0.018241856 -0.20634216 0.33421612 0.18013713 0.30397347 0.082847096 -0.23669644 -0.16481774 0.006708074 0.074815266 -0.1044054 -0.2518523 0.7014831 0.13707851 -0.19986233 0.36082566 -0.110486634 0.089443006 0.021541717 0.14447024 0.25934726 -0.065221235 -0.056152765 0.018751187 0.18299799 -0.25118372 0.6222016 0.38236484 -0.19212784 -0.13783976 -0.07685988 0.14518194 -0.019820392 -0.21991263 0.009654971 0.40925464 0.05713349 0.06311312 0.06550867 -0.12700656 0.15568343 0.0950412 0.18517399 0.014601533 -0.179094 -0.39763707 -0.10729735 0.045220364 -0.18281399 0.055545 -0.1144043 -0.09050311 0.08528178 0.031233931 0.046411294 0.26139832 0.11816618 -0.26106006 0.06211967 -0.11301372 0.40159467 -0.31274295 -0.23839998 -0.37596393 -0.12645161 -0.059170414 -0.16961774 0.20149334 0.20285834 -0.30099782 -0.017446436 -0.19387765 -0.12173398 0.08816521 -0.07140943 -0.14878078 -0.04313402 -0.08174588 0.040655546 0.019827655 0.5673545 0.07437584 0.0010065676 -0.2799254 -0.10547802 -0.15814562 -0.34497985 0.12111673 0.16049314 0.20178758 0.30418354 0.32225552 0.4011898 -0.13550843 0.075081214 0.074307874 -0.12166378 -0.06489189 -0.32397193 -0.11402522 0.10319395 -0.12524122 0.0542341 -0.15214156 0.06275079 -0.15133488 -0.11671154 0.023357956 0.31512702 0.09296955
212 -0.15786926 -0.015977914 -0.07593034 0.0033306812 0.11250744 0.110416085 0.053240348 0.104731955 0.09640169 0.49818924 -0.059963163 -0.058327757 -0.18587027 0.18799576 0.17642301 -0.4394749 -0.056715433 -0.29113802 -0.07194537 0.083253436 0.024967413 -0.16145724 -0.10441371 -0.50978845 -0.016403336 -0.26025522 -0.16344693 -0.072844215 0.025519542 -0.0724 0.053859312 -0.31232658 -0.13363054 -0.1435757 0.03019447 0.2187237 0.039605815 -0.06874299 0.031384237 -0.18135177 0.15706503 0.32733288 -0.107536905 0.008960761 0.14894499 -0.09687703 -0.11395054 -0.33530563 -0.2716183 0.027579673 0.0060111 0.033479508 0.016137041 0.10883179 0.10652824 -0.33210224 0.1574345 -0.1809747 0.39833355 -0.33332208 0.15859257 0.040843226 -0.49452826 0.08514752 -0.006282721 0.6394621 0.056387488 -0.17944454 0.07481795 -0.27493602 0.23676556 0.09859876 0.4279635 -0.29252088 0.20018302 -0.10089312 -0.23318875 0.3806535 -0.11921581 -0.0024062537 0.03149366 0.37761673 0.09328056 0.17088594 -0.343053 0.08550009 0.08965979 -0.11116018 0.039474458 0.1875203 0.3747388 -0.038489275 0.2251139 -0.18640095 -0.3242687 0.31625387 0.06899884 0.22069201 0.25890347 0.2681544 -0.060375366 0.08458702 -0.08230602 0.042443454 -0.29603082 0.09330335 0.071875185 -0.14716242 0.21192311 0.2756493 0.12479786 0.17762318 -0.14308459 0.10177926 -0.090871744 -0.20491698 -0.20888887 0.06545017 -0.13782677 -0.27023765 0.35238904 -0.06117945 0.24880894 0.014692582 -0.13461632 0.24105577 -0.31289795 0.03705241
22 -0.064212345 0.015734956 -0.028435387 -0.16628876 -0.13851628 0.11519758 0.33568028 -0.10324907 -0.1260155 -0.09991751 -0.08725454 0.27339438 0.35590014 -0.2701081 0.07921275 -0.03609166 -0.021395098 0.006860951 -0.21180132 -0.24455334 0.3775265 -0.15009491 0.098565005 -0.41970095 0.0050266646 -0.05857746 -0.3055859 -0.11053001 0.05358444 0.11516753 0.12090949 -0.1527155 0.23472926 0.057814635 -0.033432364 0.039304636 0.109302334 0.0058615785 -0.15123065 0.084100336 0.1569758 0.4774556 -0.3378558 -0.13646603 -0.31578147 0.14806205 0.20103316 0.17192627 0.22423078 -0.09137214 0.19774589 -0.067181185 -0.12481641 -0.033307496 0.013363141 0.03725858 -0.014441819 0.34496382 0.042060778 -0.19890712 0.1791082 -0.034105234 -0.0011774315 -0.09934319 0.07348552 0.15841281 -0.09486745 -0.16562885 -0.043974623 -0.31822142 -0.08935932 -0.082185335 -0.3287347 -0.12497731 0.07313249 -0.1596366 0.06497019 0.029346155 -0.12846574 -0.14094347 -0.3818326 -0.050474025 -0.22437522 -0.34953576 0.013893471 -0.24184094 -0.14441264 -0.20225206 0.06848374 -0.2024526 0.08106492 -0.16425611 0.16120864 0.07434284 -0.06518006 -0.07276465 0.16524808 -0.07368853 0.19605702 0.05413221 -0.24591622 0.0137023665 -0.05440114 0.24853693 -0.0067265956 0.22438043 0.13473904 0.14450248 0.20195137 -0.074889265 0.12692033 0.0027870475 -0.2666686 0.44123232 -0.29861397 0.024810905 -0.52386963 0.16146107 -0.044248536 -0.24445364 0.08098942 0.008273549 0.21231611 -0.26636374 0.030437663 0.05857619 -0.27093253 -0.2107268
378 0.16438027 -0.01991595 -0.022896998 0.020810826 0.106139556 -0.3970182 0.34462693 -0.5658717 -0.028311512 0.08877487 -0.16189665 -0.25252894 -0.08764252 0.070035726 0.07642573 0.42010275 -0.25752363 -0.2277291 -0.012169898 0.24260373 -0.3794899 -0.14610831 0.13093004 -0.39485577 -0.2828696 -0.025601087 -0.23013304 -0.24280176 0.14179893 0.021234008 0.3297803 0.23473875 -0.22103842 -0.19473194 0.32120484 -0.54407287 -0.30865353 -0.1551617 0.17019892 0.018287452 0.08481181 0.40489167 0.21137612 -0.032733798 -0.07905365 0.31341922 0.1507727 0.080313355 0.12212367 -0.14631079 -0.19658819 -0.12664555 -0.15886699 0.17287637 -0.4489048 -0.12226797 0.0077267513 0.011071358 -0.08260122 -0.021536421 -0.2692324 -0.3709881 -0.5278029 0.020544281 -0.42448786 -0.17438266 0.031718656 -0.002835856 -0.11723088 0.030611098 0.1736447 -0.029969608 0.19127133 -0.036392223 0.0911035 0.05202345 0.25136507 0.19254379 0.29077584 -0.18096288 0.042883933 0.16326007 0.23494472 0.35112038 -0.36521962 0.18311363 0.070174456 -0.120646276 0.2778219 0.28710142 0.24580377 0.0721151 0.10947139 -0.2521834 0.14403223 0.15195128 0.43809286 -0.4419882 0.31247818 -0.22081825 0.35970798 -0.2643926 -0.029577114 0.043460652 0.30646315 -0.5198382 0.42087448 -0.11964106 0.030554315 0.020533152 0.109670885 -0.14109856 -0.03160524 -0.23203202 0.052454278 -0.0775536 -0.093391925 0.16333592 -0.18165739 -0.3801919 0.30794105 -0.33947715 -0.176581 0.16277492 -0.07273781 -0.19589028 0.393299 0.006634146
129 -0.06873337 0.0009254441 0.3458634 0.22795363 -0.12031219 -0.18051131 0.0931407 -0.0958713 0.042235654 0.08171017 -0.13411434 -0.04481997 0.0887438 -0.21390194 0.16327287 0.036789756 -0.039840434 -0.023747612 0.0068857614 0.17655483 0.35311365 0.23877321 0.018393287 0.009340908 0.13284825 -0.3732716 -0.15310363 0.012649829 0.13112772 -0.23619558 0.26315907 -0.054646343 0.16232407 0.047889225 -0.16563876 -0.13480206 -0.06758129 -0.022174053 -0.107372455 0.23534422 0.21077521 0.32195598 -0.37546262 0.107968576 -0.09179158 0.060179714 0.44601116 0.14711447 0.0764344 0.10895989 -0.19558848 0.13184185 0.132925 0.10287982 -0.09906102 0.14676613 0.10283883 0.14996673 -0.033138894 -0.284482 0.12037643 -0.12886463 0.123503 0.032414656 0.08560571 -0.17302361 -0.013497258 -0.08638252 -0.3746277 0.18188703 0.027740363 0.02540187 -0.07125874 0.12599336 0.22366163 0.20055757 -0.03528706 0.4240417 -0.01995577 0.20203266 -0.097983696 -0.1530682 0.023147078 0.11932363 0.1357455 0.2106078 0.084615424 -0.114078134 -0.06918448 -0.13691422 0.13989109 0.14301042 0.10033953 -0.0835701 -0.08653705 0.01815234 0.24549322 -0.09457946 0.41427013 -0.012649686 0.18851842 -0.2166282 0.053016122 0.07245781 0.061046697 -0.3489433 0.16984938 0.037588753 0.061325222 0.295344 0.13150643 -0.064539336 -0.08238993 0.39493895 -0.20676391 -0.27132094 -0.16224676 0.13653143 -0.28816634 0.007181585 0.26339573 0.28333566 -0.07941304 -0.016058005 -0.19161212 0.16756408 -0.21777597 -0.15608668
106 -0.13396649 -0.014370115 0.15299512 0.30281574 -0.36460325 0.066032484 -0.050112326 -0.17295423 -0.115645215 0.19185902 -0.17261313 0.22216094 -0.07063667 -0.25683287 -0.25860482 -0.031784933 0.109796084 0.04698732 0.12620333 0.17374162 -0.13662788 0.14565755 -0.048610333 -0.07835389 0.21852504 0.24971394 0.12991269 -0.19624087 -0.16946545 -0.25783628 0.122059114 -0.0062058293 0.07615341 0.22180042 0.111900166 0.18004599 0.11849842 0.04411385 0.034216788 0.12967573 0.41905484 0.36145946 0.23793815 -0.0051047453 -0.021526748 0.4015597 0.33953157 -0.10799199 -0.3420027 -0.023531618 -0.3554879 0.14312653 0.07119322 0.028942613 -0.38319898 0.17472889 0.100978024 0.15978175 0.002748638 -0.33831903 0.36888722 0.05663736 0.023095438 0.040969923 -0.20874287 0.22393517 -0.13867877 0.026052259 -0.091485165 -0.029773178 -0.07278878 0.0017830948 -0.085283265 -0.11819692 0.3352947 0.06845241 0.04189727 0.04812285 0.056373194 -0.14074785 0.0117305145 0.10051475 -0.055706255 -0.039581906 -0.07690977 0.30720037 0.083115615 -0.22250533 -0.02280212 -0.05866119 -0.1469146 -0.006332983 0.17729823 0.27002656 0.037546553 0.098380126 0.23304336 -0.020053918 0.06931433 0.38869646 -0.008704819 -0.03811879 0.22541448 -0.043805905 -0.11898913 0.10628896 0.054138374 -0.17451781 0.18850036 0.12822627 0.09793345 0.09611385 0.022907661 0.15267283 -0.034368075 0.07027967 -0.11390654 0.03529681 -0.10686711 0.058546808 0.039223906 -0.042747583 0.0055913376 -0.21252389 -0.08002812 -0.14880149 0.018234372 -0.29715753
421 0.18111312 -0.46221018 0.04255514 0.11315942 -0.071564205 -0.18189164 0.075036906 0.28848535 0.11920293 0.35860226 0.12754562 0.027534328 -0.2133508 -0.0364851 0.26921856 -0.34135798 0.1141592 -0.17228137 0.1435751 -0.1434255 0.32336074 -0.22357446 -0.032852106 -0.11683198 -0.18961668 0.15929179 -0.24283099 -0.030323477 0.24075606 -0.13199313 0.34984443 -0.42691666 -0.19369663 -0.3014765 0.06735436 0.08269886 0.10460836 -0.09116763 -0.109701924 0.24673924 0.107437715 -0.048231766 -0.109623045 -0.008026373 -0.25852203 0.23218206 0.1761806 -0.11162426 -0.011439917 0.35120276 -0.3873215 -0.17300954 0.0151374545 -0.2013084 -0.15723622 0.19299605 -0.043896157 0.2574822 -0.1610423 -0.23656988 0.12998249 0.041048408 -0.14422624 -0.031217778 -0.17170857 0.04130903 -0.23491664 0.039285347 -0.11086324 0.057578266 0.03331797 0.20648456 -0.12205947 -0.07503515 -0.16433266 -0.2801014 -0.08883484 0.27917647 0.12542096 -0.15340504 -0.3076682 0.084902376 -0.053125855 0.12925234 -0.11671373 0.27693304 0.21424931 -0.16719641 0.074509986 0.025903763 -0.64282864 -0.0068511055 -0.011361949 -0.16309299 0.029127838 -0.2141766 0.054820526 -0.36583585 0.46262968 0.0051840954 -0.11526709 -0.43447873 -0.2421621 0.27784732 0.2105921 -0.14908724 -0.011449752 0.22680436 0.0125586735 -0.074951895 -0.074293815 0.22392717 0.0039689466 0.15831457 -0.040174782 0.40097323 0.03424349 -0.11177793 0.048293654 -0.12961517 0.14978975 0.2529567 0.46809265 -0.34094068 -0.06354515 -0.1839465 -0.27214202 -0.09548853
88 -0.26751053 -0.12950812 -0.07417847 0.11242594 0.024479317 -0.068450026 -0.22452626 -0.4323627 0.11323745 0.36302972 -0.29631838 0.24379095 0.18246964 -0.09543416 -0.065541424 -0.20398693 -0.21536388 0.0054716677 -0.03038364 0.26751253 -0.029508231 -0.01458064 -0.26138932 -0.3075908 0.17262374 0.2509782 -0.2195939 0.09306305 0.23808083 -0.22640774 0.115365334 -0.12742849 -0.11962151 0.12146181 0.2638965 0.22433566 -0.04247564 -0.14561549 0.15507685 0.21759526 0.067666925 0.11234328 0.022555068 0.014829514 -0.056891035 -0.034945007 0.21971059 -0.30684596 -0.12500109 0.13541368 0.046237983 -0.12654243 -0.03416157 0.09417069 -0.08479585 -0.3036294 0.07304311 0.08006262 0.00026984562 -0.22353187 -0.087320685 0.16272022 -0.067768194 0.044539265 -0.062178914 0.011318288 0.062147565 -0.09859158 0.08703331 -0.061018407 0.22526439 0.17751718 0.047048 0.15083939 0.24032532 0.009175979 -0.0051699854 0.11866118 -0.0047631557 -0.13984977 -0.045973632 -0.048894875 -0.1847035 -0.28739133 0.043477062 -0.011134578 0.31183714 -0.23062675 0.035090543 0.044321146 -0.16641283 -0.12905961 0.119042985 -0.11064335 0.45623043 -0.058023974 -0.051956896 0.100378565 0.1589618 0.45242372 0.08662083 -0.14192836 0.2330379 -0.20312043 0.06789645 0.1815117 -0.2360601 -0.16520381 0.07889206 0.25372726 0.17468582 -0.17630537 -0.24988306 0.17944658 0.027600441 0.07507415 0.072384104 0.32379654 -0.22251341 -0.068842635 0.1961908 -0.16271526 0.23767485 -0.5226142 -0.11493772 -0.08494261 -0.20190401 -0.2208207
115 0.08787785 -0.29557338 -0.048079018 0.015852997 0.37416667 -0.006994028 0.15755837 -0.039397728 0.07301855 0.11594115 -0.062055882 0.2705709 -0.023370784 -0.10455254 0.20025118 0.02531237 -0.008635484 -0.087743536 -0.13286352 -0.029478287 0.148307 0.25793532 0.2940824 -0.024148485 0.18053323 -0.0024734864 0.06485253 0.026990505 0.2130743 0.13370594 -0.46523243 0.08155949 0.14001991 -0.09107733 -0.1657998 0.09180555 -0.09879887 0.029040895 0.021410696 -0.28961253 0.4171838 -0.03745827 0.037106387 -0.47058216 -0.01986256 -0.03170616 0.26382414 -0.21360546 0.000108177774 0.101530686 0.010582216 0.07663392 -0.04544042 -0.10125776 -0.15497953 -0.07415648 -0.022532305 0.12378697 -0.3823306 -0.32292327 -0.14073661 -0.00016149695 0.1352296 -0.12589607 -0.032571733 0.42737857 -0.07116577 0.06361881 -0.18955287 0.19210449 0.21205713 0.011795686 -0.032527067 0.043018844 0.14423259 0.10324258 0.025104107 0.09645555 0.02010256 -0.10939613 -0.12624039 -0.18514147 -0.01051394 -0.16132629 -0.426311 -0.014197466 0.086591415 -0.25947472 -0.12081727 0.084328674 0.12388844 0.15994257 0.07079276 -0.26740965 0.19733658 0.1698856 0.000884488 -0.040447228 0.32388753 -0.10664722 -0.14262617 0.027789569 0.35654756 -0.17262955 0.04768298 -0.2821583 0.35368517 0.18910208 -0.23934871 -0.014667318 0.046984807 0.14001618 -0.06319951 -0.009785174 -0.14549787 0.07253344 -0.2713405 0.28847963 -0.016148843 -0.24221618 0.15876871 -0.074365824 0.11388917 -0.45077223 -0.22674634 -0.2253175 -0.11324911 -0.110646665
284 0.06932476 -0.08378494 -0.095225036 -0.14507422 -0.05970007 0.08489993 0.2013578 0.18411827 0.26515993 0.20675865 -0.09038241 -0.020492475 0.30559424 0.30302578 0.09084243 -0.119329974 -0.36316755 0.08193192 0.17762576 0.016480805 -0.04986379 -0.017510638 -0.028508106 0.15666535 0.19895373 0.06711543 -0.009897794 -0.13072623 -0.21885976 0.08936642 0.097288094 -0.10342256 0.22797449 0.10348112 0.12071887 -0.16078958 0.068703406 0.093420506 0.28161603 0.25870937 -0.030609557 0.2362309 -0.15292895 -0.16347736 -0.20119847 0.22944641 0.13103865 0.024449436 -0.051029112 -0.29866558 -0.07923544 -0.10306476 0.023772711 0.10435889 -0.3935291 -0.15360345 0.069895394 -0.17331374 -0.083555855 -0.045134358 0.33150056 -0.24078584 0.046254076 0.10516059 -0.0872262 0.21508399 -0.19438179 0.062341213 -0.19767994 -0.36921507 0.055111967 0.2511747 0.25988898 -0.03348488 -0.021746743 0.07426066 0.0084312735 0.19137624 -0.040039293 0.007747351 0.33337867 -0.12705223 0.10883873 -0.037859168 -0.2562931 0.021214081 0.14499648 -0.23078747 0.16755103 0.08753461 0.13093184 0.15414159 0.027446207 0.09352313 -0.34203535 0.09706229 0.16472082 -0.061723046 0.11366246 -0.05656621 -0.03272717 -0.06542141 0.08063784 0.1637066 0.32613674 -0.45799387 0.2259055 0.045997545 0.18415524 0.034980133 0.36455446 -0.058855318 -0.0864935 0.48748878 -0.082965076 0.06353529 -0.02647113 0.36344326 -0.33485875 -0.23694728 -0.10105716 -0.1380554 0.00996989 -0.044534452 -0.42054665 -0.12209559 0.040287413 -0.2733092
107 0.041589007 0.13048272 -0.0011693098 0.0012230213 -0.028431349 0.11341032 0.059651233 -0.27303034 -0.24885367 0.327716 0.03737874 0.29278752 0.14613262 -0.09132266 -0.1887532 -0.27765194 0.033069897 0.01087048 -0.0012834327 0.021738902 0.07098284 -0.08968282 -0.050775826 -0.24193646 0.11685204 0.21729124 0.1436883 0.008330093 -0.124366835 -0.037999198 0.17389378 -0.25435212 -0.21872558 0.020773716 0.001044325 0.014578185 0.19899656 0.03286669 0.09530165 -0.14791228 -0.1904312 0.32922226 -0.018244969 -0.05732728 -0.2837063 0.29914752 0.13948837 0.20209934 -0.078602865 -0.03585025 0.29091874 0.0043270914 -0.3701143 0.008075487 0.043281008 0.02162566 -0.043806188 0.12744069 0.103838794 -0.24767733 0.10286039 -0.16473706 -0.019031594 -0.2843946 0.09192687 -0.08576998 -0.0005496411 -0.09355655 0.1251006 0.023638302 -0.070342295 0.15135188 0.16166753 0.15262543 -0.13436562 -0.3091099 0.048132084 0.11739809 0.09866866 -0.007551173 -0.28946036 -0.15210369 0.034460604 0.054358073 -0.19845457 -0.32670215 0.29506168 -0.06462839 -0.037568383 -0.019264575 0.15087445 0.12937164 0.044562723 0.18054034 0.1024924 -0.024655655 0.41687047 -0.13250571 0.16320133 0.09876278 -0.13263823 0.16800334 0.35917965 0.31091946 0.048778366 0.2177221 0.29954457 -0.21936667 0.33018538 -0.048833687 0.2755999 -0.09031619 -0.033376012 0.4470292 6.688724e-05 -0.07798326 -0.34632462 0.16543967 -0.2777238 -0.47308898 0.35290304 -0.19866803 -0.041797947 0.06894599 0.04683182 0.004515434 -0.32388338 -0.12724136
116 0.017601794 0.08547338 0.16666338 0.19393143 -0.07973868 0.33295393 -0.08550571 -0.051064342 0.12052352 0.08771159 -0.15047684 0.27132478 0.2453872 0.35763082 0.029081589 0.025958523 0.08205291 0.17076191 0.0035245148 -0.16288622 0.03787771 0.17202935 0.110548794 0.077608265 0.08714432 0.21699353 -0.29176047 -0.17817096 -0.26791263 -0.08276839 0.121504895 0.14096874 -0.07607998 -0.09786144 -0.10537982 0.02044918 -0.10477849 0.13283578 -0.11449671 -0.19037917 0.0061912374 0.25402245 -0.014345005 -0.23725642 -0.023386398 -0.0710572 0.05312509 -0.26609692 0.22667651 0.2231676 -0.3072856 0.28699642 -0.07716238 0.16584049 -0.2500665 -0.26628032 0.13759662 0.1566517 0.019976467 -0.15630177 -0.055026982 0.07364911 0.22543983 -0.14978392 -0.118446134 0.1247535 -0.3050951 -0.10262365 -0.104981095 -0.08354998 0.20816511 0.008016385 -0.24469125 -0.048392568 0.084720336 0.19143692 0.07595834 0.002071833 0.11448448 0.00327662 0.06633601 -0.019674549 -0.15856227 -0.08704882 -0.22260152 0.40975705 0.16800357 0.07975832 -0.13000768 0.021609312 0.2602429 0.12855321 0.10370445 -0.2228465 -0.036217168 0.048547164 -0.019659448 0.0658226 0.13783973 0.26554233 -0.15782511 -0.45045573 0.3289625 -0.20720536 0.11744716 0.008655297 0.41750422 -0.13065352 0.13503131 0.025884477 -0.20808943 0.29678392 -0.21298166 0.19982924 0.11585663 -0.1769008 0.0927547 0.18486689 0.056918014 -0.21554363 -0.09037253 -0.13419427 0.17472564 -0.30848208 -0.33561993 0.01696068 -0.18474883 -0.076326355
143 0.15626594 -0.0735281 0.26538813 -0.29012927 0.16327845 -0.05359348 0.0139118815 -0.30419135 0.08959605 0.29297745 -0.14279765 0.09426926 0.27639446 -0.1275651 0.37362415 -0.05613769 -0.08228802 0.24761271 -0.096055865 -0.15216035 -0.033517946 -0.22204526 -0.1878661 0.02287204 0.033180825 0.07039865 0.15770826 -0.050196778 -0.10583704 -0.56699324 0.13712424 0.24455486 -0.00032483283 -0.016458485 0.05515456 0.27659494 0.33261558 -0.13631162 0.18061358 0.04506654 0.009452302 0.28974262 -0.18886307 -0.046071008 -0.15686531 0.24695078 0.11879937 0.29132876 0.054859214 -0.038691532 0.0060359375 0.27842936 -0.22121978 0.29303443 -0.27177528 0.14120276 0.053606126 0.05741686 -0.032947626 -0.26326296 -0.29641932 -0.015733793 -0.010357782 -0.24105665 0.09387805 -0.17713785 -0.29554883 0.36873597 -0.039361946 -0.040040772 -0.10037514 0.09906092 -0.11890324 -0.29224977 -0.018939989 0.06239647 -0.0030316054 0.121980324 0.030643057 -0.3562174 -0.06969312 -0.12783523 -0.03214424 -0.10685136 -0.060417566 0.12432586 0.17250778 -0.27235067 0.21654604 0.1871219 0.09942122 0.0019469947 0.15392622 0.009945279 0.008594106 0.06521981 -0.0077208374 -0.20278515 -0.15549242 0.12930216 0.0115548195 0.23200901 0.213451 0.19040956 -0.1463548 -0.03256114 -0.030308452 -0.044210337 0.3743097 0.1086703 0.23121244 -0.030620627 0.1448751 0.19760314 -0.16421027 0.4158075 0.094666384 0.24927707 -0.26203692 -0.19122942 0.062279142 -0.034314778 0.16645175 -0.11586532 -0.22989617 -0.07222417 0.24752845 -0.12141619
84 0.061784968 0.0146561405 0.30344605 0.2407222 0.0016315728 -0.3438485 -0.07477861 -0.20483424 0.115012646 0.3897732 -0.04537789 0.30637324 0.07968535 0.23148927 -0.2618588 -0.07970018 -0.13689858 0.048943933 -0.14724317 -0.05705521 -0.10516766 0.034210384 -0.3331247 0.039959695 0.1424161 0.17731078 0.025022835 0.3385008 0.10293018 0.09065903 0.2391507 -0.18737453 -0.14067055 -0.20366344 0.11690225 -0.0062756687 -0.09492709 -0.3433702 0.104144074 0.15763234 0.3635355 0.47746825 -0.23225613 -0.14652315 0.038833726 -0.044800397 -0.12715675 0.08188022 0.15746312 -0.33902824 0.14348257 0.29567614 -0.1361767 0.1854767 -0.5104609 -0.06817559 0.11629998 0.051151935 0.048599888 0.12622151 0.25114 0.11035691 -0.20321146 -0.10894501 0.011551445 0.18442084 -0.30552924 0.055279523 0.19753024 -0.32108992 0.038497902 -0.13596742 -0.10276061 -0.020158801 -0.072592005 -0.026954185 -0.012185841 0.1629071 -0.020246768 0.019736713 -0.04024706 0.03894122 0.08555996 -0.16294731 0.12470207 0.20347221 -0.008523448 -0.1878763 -0.096034944 0.2133937 -0.13623951 -0.21445175 0.20997453 -0.034000665 0.17817214 -0.13453767 0.040646918 -0.15303908 0.028901279 -0.020303298 -0.068894036 0.0045525143 -0.01565 -0.05120267 0.2789652 -0.2552319 -0.09692203 -0.08371492 0.3564567 0.16335227 0.47403142 0.06974557 0.0024165227 -0.097738214 0.13577655 0.0039747134 -0.19363733 0.21016288 -0.22575809 -0.123433255 -0.04677853 0.23095618 0.080454685 -0.37057087 -0.4877904 -0.03863131 -0.28029135 -0.50603074
283 -0.16873914 -0.17927003 -0.16918191 0.028945502 0.1376097 -0.064883016 -0.014305123 -0.067591354 -0.36831933 0.46296167 0.15096909 0.09017344 0.1558048 -0.11164913 0.16310495 -0.017493732 -0.053814337 0.120559245 -0.15510611 -0.19305058 -0.08929481 -0.13482887 0.0017443739 0.16695674 0.15801887 0.12207619 -0.19890416 -0.017597703 -0.38722828 -0.21055147 0.16696806 -0.03306153 -0.065629065 0.048212927 0.09457636 0.061477546 0.09628705 -0.036487743 0.14073563 0.044488676 0.0776779 0.45936152 0.002383626 -0.12007791 -0.31191233 0.120014355 0.083470866 0.05765651 0.1051697 0.077814065 -0.33681035 0.017285453 -0.2573658 -0.13812958 0.19913852 -0.007831043 0.043951593 0.05432948 0.13791505 -0.20865957 -0.11297213 -0.0063841995 0.13788633 -0.026558906 -0.06864292 -0.1905661 -0.1137083 -0.0766786 -0.054533787 -0.076106414 -0.014752328 0.15524682 0.21418303 0.08088005 -0.26553628 -0.07980842 -0.013328896 0.07849197 -0.048103552 -0.026394526 0.24981107 -0.07674128 0.15749383 0.06460021 0.021602547 0.22939883 0.27879804 -0.24339534 0.1442242 0.27512184 0.18852594 0.20843025 -0.06927463 0.16522439 -0.035819933 0.05554615 0.42386216 -0.37364048 -0.23166977 -0.00092906447 -0.076473676 -0.14553545 0.11665527 0.08625833 0.03720076 0.14066415 -0.2963479 -0.072167285 0.21831845 0.16232362 0.27321497 0.33602545 0.43875718 0.20549636 -0.21112223 0.26504475 0.062761985 0.43549538 -0.39418042 -0.36468992 -0.21099687 0.41834795 0.37058127 -0.2951537 -0.3893999 0.012315542 0.02047564 -0.116348505
85 0.26261634 0.21507855 -0.014881759 0.1256923 -0.082182504 0.09102412 -0.06861034 -0.08390873 0.02935651 0.17449078 0.03928266 0.041261155 -0.1209453 0.0055644857 0.29302132 -0.1184144 -0.16236229 0.3412287 0.026564138 0.04762871 -0.072475925 -0.03384787 -0.043690898 -0.07402218 0.03976722 0.054619413 -0.032941844 -0.13026342 -0.48576537 -0.033465333 -0.06615208 -0.32145438 0.18732503 0.17121147 0.5768506 0.08045501 -0.2221562 -0.018290056 -0.12698275 -0.046643768 0.20962955 0.033876866 -0.3020677 0.09456813 -0.3202795 -0.06499697 -0.12045081 -0.3983845 0.3290644 0.41736302 -0.2169533 0.076864496 -0.19187833 -0.00817671 -0.55511755 -0.015133229 -0.123563536 0.41678908 0.22710696 0.33309472 -0.12284311 0.02910651 -0.4720538 -0.10836158 0.08998434 0.017856551 -0.5573835 0.15973552 0.07011052 -0.2405216 0.15020816 -0.08800588 0.1691374 -0.22356749 0.32337162 0.06082356 0.4219532 -0.09436879 0.2192402 -0.1703606 -0.12034277 -0.17568326 0.16658503 -0.26062042 -0.030766863 0.10000293 0.10168781 0.19482365 0.08579098 -0.08166924 0.0765017 0.10698464 0.0018147597 -0.28942904 -0.28941444 0.23391363 0.3301395 -0.469202 -0.2807758 0.21363054 -0.45126015 -0.040813573 -0.56498414 -0.06661609 0.20868571 0.5830569 -0.26714233 0.31673652 -0.34926468 -0.17573312 -0.10306634 0.09605045 -0.20996703 0.07016325 -0.103983864 -0.13837741 -0.569818 0.4283435 -0.10940832 -0.20107494 0.4773594 0.25111163 0.2855838 -0.07294939 -0.19889596 -0.113772035 -0.25602517 -0.14204335
302 0.31629518 -0.28949404 -0.09450096 0.54002154 0.22269386 -0.04494576 -0.17789051 -0.1879195 -0.023233034 -0.004678445 -0.16015345 0.15330559 -0.09954486 -0.07826913 0.3436344 -0.2075271 -0.11269929 -0.06119481 -0.61533946 -0.4031164 0.16050586 -0.3181934 8.29741e-05 -0.072351635 -0.018773692 0.073924094 -0.030228056 0.026641728 0.10933928 0.021609822 -0.07158946 -0.025449432 -0.39042208 -0.038701393 0.03344533 0.13435942 -0.277378 -0.20535769 -0.05270546 0.23841792 0.035619758 0.11676002 0.21722932 -0.13774066 -0.10724011 0.39895225 0.1248428 0.1462704 0.1159811 0.57316643 -0.11337781 0.06673946 0.5651652 -0.42703944 0.016905433 0.070546895 0.022784568 0.015515925 -0.31951076 -0.027923275 0.11431647 -0.38789693 0.36152518 0.20328449 0.0056785727 0.26185954 -0.27544087 -0.10760754 0.13243206 0.04361705 0.11161637 -0.16280204 -0.19217888 0.044674404 0.18027626 -0.412493 0.33050278 0.12832601 0.07292995 -0.2551882 -0.19428444 0.05909991 0.11586134 0.1716259 -0.16442646 0.3238283 -0.4518251 -0.10885665 -0.06544543 -0.40072712 0.068545215 -0.074191555 -0.18860705 0.058557883 -0.22824995 -0.047882635 0.3742355 0.2516073 0.40555412 -0.26871553 0.07971214 0.23220442 0.12894982 -0.055529 -0.028679427 0.034095775 0.08669707 0.012233726 0.01339096 0.23041728 0.025345897 -0.24997966 0.568907 0.24690369 -0.223016 0.2873868 0.36015055 -0.050427157 -0.10873164 -0.2316901 0.17033355 -0.29763454 0.102272145 -0.13556036 -0.19767663 0.04915012 -0.39073882 -0.51938736
425 0.23113854 -0.1988299 -0.2754635 0.33991864 -0.069915496 -0.08839687 0.18392259 0.33120385 -0.03636815 0.20379043 0.13603762 -0.17427754 0.103668585 -0.058397442 0.30187675 -0.22772886 -0.25413775 0.2993475 -0.16000481 0.11927378 0.039686274 -0.092410214 0.021904066 0.024860954 0.28687784 0.19508846 -0.01937027 0.029121041 0.0835476 0.05717442 0.13450971 0.18701996 -0.19534387 -0.15170965 0.27614152 0.25840554 0.28620848 0.22181113 0.10611772 0.34637874 -0.037378523 0.34577635 -0.1562627 -0.05837963 0.06357391 0.00059133617 -0.022285715 -0.094762556 -0.044519138 0.23871213 -0.21809149 0.10820222 -0.026795669 -0.041330375 0.2039005 0.1710784 0.0044526025 -0.08618209 -0.32792076 -0.39324158 0.25709987 0.088553675 -0.047410738 -0.038196515 -0.15342514 0.21335082 -0.09224409 -0.09570379 -0.27152383 -0.1666825 -0.3958279 0.11392877 0.09570174 0.054943565 0.2800797 -0.06936019 -0.09417402 0.03335604 0.31763977 -0.2806728 -0.06704244 0.19186819 0.119140446 -0.0006365498 0.07215282 -0.09092399 -0.06803648 -0.11442283 0.09651732 0.028917693 0.16609798 -0.080480576 0.24716844 0.22191797 -0.14390466 0.08353626 0.19713408 -0.13254897 -0.06854517 -0.1630827 -0.040030193 0.036610622 0.20259376 -0.21809144 0.2031487 0.13337448 -0.1174672 -0.076107174 0.12917045 -0.04265187 0.19479863 0.52019006 0.0642255 -0.117786914 -0.14919083 0.052513406 -0.1319495 0.7081793 -0.1810941 -0.19000131 0.043736663 -0.04364548 0.21418451 -0.11893052 -0.4595358 -0.3252588 0.018838447 -0.26460254
257 -0.08859513 -0.19354226 -0.13219957 -0.12192808 -0.27376863 0.17128241 0.3590514 0.025560671 -0.024871223 0.17617978 0.10845516 0.03294683 -0.011145104 -0.23462874 0.08700712 -0.17586392 -0.3341305 0.08983042 -0.22765899 0.11685076 -0.16122183 0.21603893 -0.17044725 -0.008470973 -0.04142501 -0.18443276 -0.19470322 0.13011211 0.070678994 0.052199293 -0.16047283 -0.10200813 0.057670675 -0.081509516 0.06329415 0.38727492 0.22550517 0.14590494 -0.054102127 0.015995089 0.16341595 0.19680022 0.0032583342 -0.29382616 -0.34584263 0.2427469 0.0383695 -0.24860103 -0.036935598 0.05641585 -0.32255736 0.0015234625 0.21432425 -0.1839734 -0.3239182 0.3065976 0.011604055 0.24664688 -0.30262855 -0.35050312 0.08237401 0.06589538 0.15711103 -0.31275254 -0.13576487 0.066879705 0.20457727 0.132261 -0.42144564 0.049476977 -0.22669984 0.2779796 0.21094127 -0.14485379 -0.09928948 0.07651049 -0.40563706 -0.019167352 0.09104232 -0.26810846 0.086463444 -0.09206554 0.03195497 0.18059725 -0.084261134 0.17910719 0.37123463 -0.19842398 0.105971865 -0.19054167 0.00056769093 0.0746052 0.091882475 0.020848442 0.1373179 0.24189211 0.02165392 -0.07920784 -0.03073877 0.1815905 -0.13951807 0.052970517 0.23052447 0.47342902 0.088769786 -0.10356227 -0.09604769 0.099489 0.2354867 0.28059036 0.08589224 -0.018368695 -0.1442957 0.27569628 0.08397737 -0.07833899 0.010186567 0.19272198 -0.0623092 -0.56258 0.098646946 0.067693 0.39549372 -0.22354996 -0.24033979 -0.38218564 0.0959973 -0.33565834
406 -0.03451676 -0.110662036 -0.016954273 -0.24042852 -0.12358731 0.4396658 -0.16933195 -0.0945518 -0.03543933 -0.011068842 -0.10158519 0.10989182 0.44078198 -0.12061741 -0.19366251 -0.016765762 -0.44243038 -0.15996139 -0.16145088 0.11967256 0.094310954 -0.19014345 -0.19576423 0.0013354567 0.22368449 -0.07100951 -0.22420058 0.067738675 -0.05437272 -0.047104232 -0.03232285 0.17241624 0.1519825 -0.60773647 -0.20992972 -0.22324465 0.015010496 -0.09047481 0.28975254 0.034546234 0.14914544 0.14636068 -0.17216723 -0.14075969 -0.04659384 0.08229336 -0.123293445 0.15543629 -0.23374763 0.25923666 0.33397853 -0.09007731 -0.116433166 0.17266294 0.12074433 -0.115770385 -0.19401804 0.23037504 -0.47909397 -0.348752 0.12579377 0.29904118 -0.37870514 0.007173868 -0.15463687 0.27279183 -0.024767494 -0.045123413 -0.23502901 0.01613807 0.07934303 0.10969559 0.13067077 -0.15175787 0.111975454 -0.29984593 -0.11762945 0.002521908 0.089774005 0.004827731 0.074255094 0.08108507 0.17527616 -0.19693412 -0.3089685 0.15526891 0.42952174 -0.2468082 -0.11601155 -0.16118822 0.17915635 0.2052009 0.2256903 0.049197853 -0.054795634 -0.05002965 0.07880322 0.12141007 0.2599987 0.05907666 -0.08273483 0.11040052 0.26318687 -0.014176488 0.3667969 -0.23319806 -0.05565326 0.116907835 0.1394794 -0.06954691 0.19085921 0.25341 0.42685384 0.2713927 -0.024145152 -0.22440116 -0.39155963 0.36736217 -0.019876843 -0.09326482 0.029387105 0.13786018 0.08026203 -0.12300296 -0.37477365 -0.393184 0.14903776 0.08794999
334 0.389311 -0.19996893 0.06703033 -0.13204482 0.1635604 0.12057208 -0.17557348 -0.24607974 0.048304033 0.13905078 0.051122922 0.3040773 -0.021877317 0.30715773 0.0036726468 -0.010617999 -0.022048445 -0.15638317 0.10932462 -0.19247985 0.021853458 0.19632706 0.17976633 0.18182059 0.3922595 -0.065592214 -0.17861694 -0.27085704 0.053643 0.13525787 0.23337874 0.20546587 0.19118887 0.0070351893 -0.014849199 0.027840717 -0.11242886 -0.08544556 -0.16026787 -0.23202051 -0.08365109 -0.06771697 0.3816975 -0.16978711 0.009944427 0.16078077 0.12518199 -0.01269063 -0.03352176 0.06666658 -0.04014999 0.23427784 0.03930531 0.061754633 0.055264454 -0.060354963 0.1326465 0.23871404 -0.071558006 0.16853604 0.13606153 0.30789882 0.14080779 0.07285359 0.07663626 0.3211964 -0.3087193 0.09065971 -0.14615045 -0.048890606 0.27774277 -0.13759942 0.011456591 -0.5533071 0.23927365 0.11064785 0.025598058 -0.0060328334 -0.05318217 -0.0765383 -0.23825501 -0.1458191 -0.070091136 -0.2671397 -0.23764317 0.3477786 0.074903265 -0.05742617 -0.1177179 -0.020279298 0.10748029 0.2321441 0.017366676 0.18577427 0.15637197 -0.12812154 0.39159277 -0.08108939 0.120669425 -0.06437373 0.12017252 0.2623785 0.09580012 0.0729478 0.12508857 0.13463305 0.36504102 -0.29898286 -0.027080206 0.0123321805 0.32369485 0.347115 -0.24493419 -0.1085868 0.15663387 0.2882915 -0.18770324 0.26824868 -0.105997264 -0.1583099 0.28152886 -0.08859738 0.2546467 -0.67292744 -0.46526974 -0.25135314 -0.019950166 -0.1999779
821 0.061521586 0.014488314 0.30687296 0.45202583 -0.076929204 -0.21769466 -0.2100959 -0.108905934 0.3091048 0.015481202 0.036671035 0.06389604 0.053206876 0.09645737 0.059313376 -0.07042095 0.20601447 0.09254413 0.09914 0.09031713 0.04756092 0.13041273 -0.063549824 0.114489295 -0.011660816 -0.29819307 -0.10809424 0.05668758 -0.028914463 -0.34818864 0.50964105 -0.02529125 0.09941953 -0.03320378 0.048683185 0.04703121 2.229154e-05 -0.26223144 -0.2932831 0.10432054 0.15380327 0.51109314 -0.08495022 0.07241889 0.079708084 0.011110774 0.29128453 0.2584912 0.13091825 0.31719854 -0.16844197 0.27848983 0.21053596 -0.36909798 -0.031955298 -0.15481512 0.07253218 0.104742534 -0.5589194 0.015692491 0.02195509 0.24256048 0.1573593 -0.16649002 0.05616548 0.10341024 0.05821023 -0.36279392 -0.44600603 0.11159818 -0.016616635 0.07533873 -0.07650325 -0.18806216 0.27149138 0.1407074 -0.0633259 -0.09151739 0.023180123 -0.047738943 -0.015732551 -0.3874438 -0.03972421 0.13381712 -0.027522441 0.26475072 0.10038111 -0.020039229 0.07703851 -0.2008586 0.24668339 -0.02549209 -0.19977723 -0.0801636 0.13673775 0.26105547 0.07991373 -0.09578549 0.10312373 -0.10356066 -0.08523119 -0.57274055 0.037886687 -0.27492 0.02112857 -0.22104554 0.104789674 -0.1858917 -0.1748122 0.004094044 0.16385147 -0.12770177 -0.11173666 0.2839499 -0.043506227 -0.051613506 -0.2133157 0.15134381 0.078274764 0.06602426 0.303531 0.06623833 -0.0709807 -0.54944307 -0.13059254 0.1305733 0.013572557 -0.12140806
97 0.24585001 -0.06883466 0.10450376 0.19107501 0.13422856 0.11412283 0.44525275 -0.08970358 0.023981031 -0.100434855 0.11052636 -0.08344741 -0.022285147 0.040080823 0.084605105 -0.3804464 0.12455628 0.02941799 -0.25356528 -0.15148214 0.020697491 0.20540392 -0.25720513 -0.1772883 0.008577736 0.1460591 -0.052213054 -0.2630294 -0.022436565 0.17371899 -0.011509739 0.20944238 0.19946364 -0.066011444 -0.046477295 0.3365602 0.3394086 0.13401379 -0.53903514 0.10090892 0.176462 0.3454756 0.03896623 0.04032646 -0.07017919 0.39882126 0.17803402 -0.053621367 0.19787516 0.29831854 -0.18439434 0.4552694 0.31597105 0.5496452 -0.07486662 0.010075177 0.18761328 0.24937169 -0.14899457 0.016809102 -0.2141361 0.10635086 -0.16376948 -0.2733526 0.033729583 0.18427981 -0.3208619 0.35427874 0.107532315 -0.25274625 0.068007834 -0.020346744 0.571516 -0.09187384 0.25120696 -0.01275286 0.019405706 0.20458314 -0.12121528 0.11806565 -0.38324738 0.43015477 -0.025810972 -0.12247378 -0.018408459 -0.13150133 -0.1535602 -0.12030478 -0.05574478 0.21962923 0.093432516 0.047437914 0.09808277 -0.05656176 0.07976017 0.12934497 -0.09215682 -0.03130259 0.11607152 0.028611504 -0.5666056 0.21243297 0.012348841 -0.5820666 0.032601498 0.20286347 0.7155824 -0.013588902 0.123902485 0.2546146 0.053021245 0.041366953 -0.07579731 -0.08161716 -0.011628255 -0.26556414 0.027765505 0.015966974 -0.26818478 -0.24364765 0.015322064 0.06858332 0.16222355 -0.46995595 -0.17554307 0.14480028 0.27295598 -0.13475119
59 0.19089186 -0.014542561 -0.027285066 0.13979094 0.0050298967 0.15453829 0.23455355 0.022867747 0.18644077 0.07244575 -0.25494096 0.40022585 -0.11601587 0.0412604 0.033175156 -0.15833506 0.04022196 0.14167094 -0.17269444 -0.014331559 0.21197765 0.08917025 -0.018620653 -0.049565647 0.024171542 0.0585969 0.063823976 0.0104303025 -0.09928228 -0.22353496 0.12752646 -0.23052336 0.115478605 0.00041869708 0.20973128 0.14601862 0.25985667 -0.055545233 -0.057683606 0.05181971 0.16208231 0.16653429 0.20556858 0.07095336 0.14309585 0.26780975 0.31338918 -0.27334192 -0.11468203 0.040682137 -0.12454385 0.08512798 -0.04045298 0.14147767 0.08540272 -0.27275032 0.17030519 0.00819911 -0.17890444 0.17641607 -0.024903003 -0.07009644 -0.10598239 0.12931237 -0.10902927 0.23220237 -0.18227029 0.15432501 -0.1210742 -0.3343812 0.4721286 0.13400234 0.005643177 -0.15226492 0.12903759 0.030669091 -0.12672415 0.2988162 0.06577913 -0.052493762 0.31421044 -0.13581893 0.092130676 0.09102774 0.0017660831 0.09979581 0.17386638 -0.13576695 -0.1606922 0.41527635 0.40699726 0.22328816 0.15095565 -0.024687728 -0.17596266 -0.24997671 0.037880998 0.037089188 0.07293834 -0.080349356 0.11412176 0.045129307 -0.06325392 -0.026292412 -0.30109957 0.13761938 -0.14217986 0.087554485 0.03229877 0.08741562 -0.014031627 -0.08351422 0.22977461 0.16043022 -0.033226047 0.43457603 -0.25295815 0.200627 -0.02111585 -0.1761473 0.069397315 0.10834453 0.06863533 -0.117322005 -0.71214694 -0.2697666 -0.06752044 0.14351736
64 -0.1187378 -0.11935818 -0.07361431 0.23022674 0.0017563519 0.09430395 0.33708096 -0.1720001 0.07726285 0.22533037 -0.13627465 0.05866912 -0.19961405 0.020259753 0.13485128 -0.13242878 0.1011533 -0.09686674 -0.14777707 0.105061814 0.12112792 0.17572518 0.10347603 -0.04741508 -0.021084793 -0.34195164 -0.15681772 -0.023470042 0.028996637 -0.3222448 -0.024214866 -0.15722859 0.056596372 -0.11662 0.28895673 0.019567376 0.23135956 0.0463439 0.03865468 0.20150971 0.3145526 0.21157797 0.10292754 0.0050093182 -0.16819593 0.077866346 0.117530026 0.22557557 -0.10570733 -0.024070933 0.1923446 0.1634352 -0.14277354 0.26835737 0.0709776 -0.15596648 -0.2884006 -0.022329668 0.04604704 -0.031613152 0.0678587 -0.07755649 -0.0732531 0.016709888 0.19944264 0.2012381 0.04652758 0.06684534 -0.22227262 0.013257481 0.4090981 0.3317283 -0.039336063 -0.09842983 0.33210135 -0.024529476 -0.09587301 0.18977174 -0.07375186 -0.08624517 0.18968119 -0.095781565 0.08651032 -0.21493025 -0.23652272 0.16274787 0.38362113 -0.06641749 0.01616885 0.23999992 0.18776836 0.07784184 0.023189472 0.035797946 -0.1932656 0.03997315 -0.20887756 -0.07545258 0.21645096 0.055226512 -0.3358556 0.1484818 0.009540264 0.02264077 -0.32145196 0.022375274 0.031262513 -0.259162 -0.0352391 0.15363766 0.041467443 0.097765796 -0.045390617 0.41678116 0.08951263 0.3327208 -0.23961899 0.17856707 -0.11909434 -0.26371917 0.18325163 0.29828137 -0.23224922 -0.039550453 -0.5205769 -0.18779327 -0.34711635 0.15033743
170 -0.2401833 -0.045145188 0.07212293 0.045412183 0.085784 0.16238871 0.2580164 0.08420405 -0.22737868 0.056518286 0.2694136 0.17559534 0.42375165 -0.028961318 0.12717555 -0.055809937 -0.0490959 0.015287036 0.1599719 0.055340365 0.26514035 0.36526528 -0.057412237 -0.14464013 0.08564395 0.07393109 -0.26845673 0.10458616 -0.06841799 -0.031502884 0.0068418253 0.12583953 0.3364818 -0.033289675 -0.03159165 -0.03285248 -0.08333848 0.36715242 0.006118123 0.068361394 0.25011936 0.23269862 -0.15744789 -0.22435771 0.03332644 -0.08221074 0.34870446 -0.30415058 0.045449473 0.34447363 -0.10433498 0.011205069 -0.11724779 0.26987132 0.09117005 0.09826218 -0.13259669 -0.057941094 -0.07653112 -0.26413155 0.10388921 -0.04370632 -0.18698668 0.07733339 0.06037742 0.054865725 -0.13962321 -0.291521 -0.17056087 0.035621107 0.072860986 -0.13916545 0.028754475 -0.08293114 0.09472628 0.024351725 0.2603137 0.12853713 -0.060735583 -0.11133976 0.11649961 -0.025427591 -0.026578534 -0.37876147 -0.17051163 0.26304382 0.16776614 -0.07028327 -0.02789346 -0.016785413 0.23755121 0.019832488 0.20848535 -0.20250449 -0.3190474 0.052609798 -0.0959802 -0.16069189 0.21305606 -0.03743084 -0.016704144 -0.2883502 0.24120098 -0.23967145 0.122922674 -0.1324939 0.4401837 0.07999741 0.12080416 0.36167598 -0.20777492 0.19343862 -0.0547287 0.12212594 -0.13275653 -0.06320339 0.1332494 0.005561919 -0.084081925 -0.32629758 0.0025559806 -0.104370765 -0.15037072 -0.2720367 -0.35306942 0.0675676 -0.09279026 -0.052622758
281 -0.26558807 -0.056391098 0.09927053 0.33298698 0.02119027 0.061068047 0.047136765 -0.107213214 0.043030884 -0.0509904 -0.03514826 0.09483583 0.06683465 -0.14209546 0.1240126 0.23775391 -0.057362434 0.0723408 0.16637118 0.04967346 0.17101772 0.37859592 -0.14732835 -0.32881925 -0.15463282 -0.15099257 -0.13628493 0.037212674 0.13512188 -0.14014195 0.24581736 0.18758495 0.10570995 -0.233332 -0.17433971 0.012815817 -0.052629445 -0.115699954 0.017519299 0.23455009 0.017845476 0.3369751 0.018890334 -0.18736337 0.14054866 0.07727911 0.18412343 -0.2245498 0.2615116 -0.1747142 0.046716496 0.11726964 -0.19055296 0.1709105 -0.31273615 0.10792481 -0.07649283 -0.1647301 0.030208634 -0.13532984 0.30828735 0.033694196 -0.14394188 -0.1858906 -0.5297063 0.30318713 -0.26863995 -0.041296534 -0.20189634 0.25481167 0.04032282 -0.17016234 0.029494122 -0.06681514 0.018962748 -0.07241871 0.32553437 -0.020517329 -0.011702075 -0.23865733 -0.095346056 -0.19169672 0.10853358 0.26098448 -0.18114415 -0.29651874 0.06834822 -0.2067518 -0.10768254 -0.2755775 0.30848664 0.022068627 0.21021774 -0.2051591 0.052936915 0.22450437 0.22653258 -0.1655648 0.15259697 0.08972804 0.10559634 -0.3717961 0.11220577 0.32135534 0.29805842 -0.12646471 0.20282403 0.20880778 -0.1693341 -0.013045812 -0.008071613 -0.041898858 -0.069984466 -0.17371131 -0.36997762 0.095916405 0.004156032 0.2263389 0.01167207 -0.0019166592 0.13993312 -0.08148627 0.12153562 0.012463238 -0.2897636 0.10191956 -0.08633302 -0.14315178
253 0.2046255 -0.03145121 -0.06231774 0.09294216 0.024989504 0.02965153 0.3038331 -0.058759354 0.12270267 0.36667347 -0.32776013 0.28360203 -0.32151148 0.24976097 0.041689895 -0.38447195 -0.013311819 -0.2254368 -0.041378587 -0.072841465 0.45234543 -0.01047202 -0.13348858 0.0577762 0.15595345 -0.051469427 -0.08290375 -0.20913532 0.06906996 -0.24080062 0.043784883 -0.27598977 0.090823896 -0.11739906 0.041950937 0.23847158 0.22514762 0.013011431 0.07755032 0.17291035 0.14278746 0.053308725 0.057008967 -0.18416096 -0.08029853 0.027165739 0.22863406 -0.2781231 0.09159615 0.23705265 -0.05156155 -0.05283864 0.24287732 0.2773467 0.028776467 -0.23117732 0.18479235 0.06074324 0.14651272 -0.06563832 0.09353349 -0.058797576 -0.18850122 0.039191652 -0.09804454 0.44247198 -0.3215263 0.06704897 -0.0583187 0.028133975 0.3905818 0.4823734 0.34678665 -0.38879883 0.09568273 0.028026272 -0.3158197 0.26477838 -0.08351941 0.07799456 0.21100996 -0.21578445 -0.26671636 -0.09017085 -0.28002924 0.04718722 0.054475494 -0.08752286 -0.27109995 0.067561075 -0.023119526 0.016895678 0.08866323 -0.103971876 -0.0643325 0.12997851 -0.041427806 0.004135157 -0.057165645 -0.075561866 -0.22027002 0.2248422 -0.31793442 0.07574909 -0.17918621 0.46141624 -0.004735146 -0.20320329 -0.10751367 0.11058506 -0.059051108 0.0596703 0.014165025 0.30288866 0.11738826 0.08229883 -0.3763051 -0.014967083 0.1593348 -0.18420792 0.20985799 -0.039814945 -0.03208115 -0.1612088 -0.66818863 0.03624352 -0.1490231 0.18932864
213 0.28421122 -0.08978677 -0.09850767 0.013594181 0.11697745 0.08852033 -0.10169093 -0.24825607 -0.08419095 0.31509867 0.13404441 0.4208631 0.336702 -0.1266547 -0.17960446 -0.13770491 -0.1811059 0.024391277 0.026062053 -0.07430888 -0.18946865 0.19435728 0.0018795513 -0.22974962 0.06498376 0.1414589 -0.15816987 -0.26439902 0.10196994 -0.24186948 0.23672892 -0.1558636 0.076209575 0.090211526 0.08408815 0.14532684 0.04430431 0.021005968 -0.041348167 -0.0029225424 0.24741904 0.40013406 0.2453678 0.20371854 -0.28925827 0.2923848 0.28345168 -0.006294566 -0.14714257 0.07885329 -0.0640019 0.15034364 -0.32062504 0.10002951 -0.28675872 0.181914 -0.039507274 0.06475865 0.035757825 -0.07832002 -0.042190917 0.26859912 -0.1168137 0.20049046 0.04812736 -0.019666452 -0.09553256 -0.16578852 -0.08999485 -0.2489975 0.038315076 0.41846278 0.016412623 -0.037978794 0.09072149 0.19552587 0.20231888 -0.09151874 -0.22273482 -0.012913781 -0.2000419 -0.1522279 0.062984124 -0.067965716 0.06771597 0.43028566 0.11439373 -0.046580277 -0.23728983 -0.1785921 -0.05563635 0.097675376 0.043130696 0.17720783 -0.11633617 0.13560869 0.042788163 -0.16398777 -0.042395823 0.3502101 -0.14568037 0.08077676 0.18538284 0.008408477 -0.06869376 -0.1773763 -0.010110867 -0.12186564 0.11408403 -0.109793596 0.16133754 -0.033066172 -0.2117075 0.25150448 -0.11202094 0.042577453 0.081390336 0.31418034 -0.330246 -0.17581503 0.098769374 0.27487668 0.18696041 -0.17756979 -0.30134973 -0.033202052 -0.0682722 -0.1538614
166 -0.1730611 -0.17750935 0.33982083 0.09495154 0.0021832641 -0.100682825 -0.14660096 0.07915369 -0.023188312 0.03654614 0.12575042 0.38615757 0.034888487 -0.11819119 0.03431033 -0.20078027 0.027779022 -0.07464654 0.19668561 -0.04959854 -0.0018168843 0.50081235 0.05210512 0.06662499 0.11569345 0.19609016 -0.41419354 0.34120384 -0.032802623 -0.23213331 -0.107767716 0.006885331 -0.059633605 -0.03629278 -0.121966146 0.013313166 -0.011771696 0.047821056 -0.1763079 -0.10410484 0.18746652 0.042640507 -0.0067845685 -0.4345453 -0.06999764 0.08895493 0.22493172 -0.078623205 0.013907474 0.40037754 -0.32404062 0.111835234 -0.04479422 -0.024751423 -0.07726634 -0.07845776 -0.10366279 0.040522024 0.10220849 -0.2633986 -0.13052064 -0.14952067 -0.14760798 -0.20752524 0.025273236 -0.123040944 -0.1987167 -0.17136525 -0.20981412 -0.3645207 -0.10904175 -0.15218271 0.18696393 -0.12499683 0.16858073 0.34218866 0.24927358 -0.16682474 0.057468124 0.16519152 0.09521606 -0.19055742 -0.0751833 -0.049749658 -0.15582189 0.2859646 0.051848337 -0.14796901 0.14378963 0.0818292 0.21375395 0.39527336 0.2337205 -0.22673509 0.23076123 0.0936217 0.3069535 -0.04552629 0.39243254 0.09653775 -0.16615824 -0.28587505 -0.16962372 -0.19241767 0.031807896 -0.14177851 0.48281097 -0.13089694 -0.06879952 0.42194664 -0.045187168 0.3214476 -0.27034518 0.21988355 -0.33948126 0.11270132 0.18903396 0.11257751 0.15604153 -0.30637154 0.06868056 0.037559208 0.1688183 0.0023361787 -0.017673165 -0.0293689 -0.3320409 0.024155628
7 0.2651368 0.21137947 -0.38339224 0.6826715 -0.21522047 0.14146931 0.14936069 0.011886559 0.334877 0.043341294 0.17104897 -0.08189758 0.27959839 0.067256905 -0.27400675 -0.43215635 -0.12612388 0.042159956 -0.1896679 -0.12442115 0.10851482 0.15506442 0.09840913 0.18416055 0.040334918 0.09248219 -0.20550334 0.10002717 0.28591737 -0.3717388 0.14407204 -0.10234136 0.068664394 -0.18804432 -0.11513545 -0.48257452 0.10223165 -0.1824334 -0.44703874 0.49632955 0.37386632 -0.12306367 0.0812099 0.10941478 0.3301689 -0.03160542 -0.24970727 0.33671203 0.100444146 0.08468392 -0.34337363 0.033514984 0.24195716 0.39193177 -0.09384172 0.013279328 -0.5432164 -0.15229449 0.13296662 0.008760759 0.31397492 -0.392238 0.11758698 -0.08536574 0.21244937 0.5874177 0.0150136305 -0.2718438 -0.17635195 -0.12354769 0.37793338 0.09957526 0.35606167 -0.3767827 0.024072716 -0.34568945 0.24253473 0.06506951 0.0018496162 0.06702401 0.11219411 0.057108946 0.087784305 0.22492975 0.20079479 0.18319215 0.0010281447 -0.042126138 0.049214587 0.17778759 0.103976846 0.09543304 -0.11344551 -0.13223895 -0.3150885 0.4016862 0.17786172 -0.25139114 0.05591617 0.14234349 -0.060946863 0.19920404 0.0720662 0.24459945 0.0028263435 0.1870212 0.07030764 0.11102135 0.11273145 0.44363844 0.16078418 0.10808352 -0.20188984 0.16683103 0.076684535 0.13068762 -0.4602225 0.20310177 0.23263566 -0.028871333 -0.43179047 0.31835294 0.24923407 -0.11963099 -0.061227947 -0.22786961 0.22240031 0.46453762
474 0.02809065 0.064901486 0.14114967 0.19834797 -0.5754534 0.10291532 -0.10891479 0.13454553 -0.13188842 -0.15109922 0.055771317 0.31774005 0.18309444 -0.47337484 0.15610635 -0.013212268 -0.061158244 0.1818547 0.1389564 -0.15481178 0.30417207 -0.08352012 -0.14652857 0.20483172 0.6033506 0.10467453 -0.53246564 0.08337835 -0.052539423 -0.043716133 0.4030623 -0.2108476 -0.32910395 -0.59645313 0.35110417 0.08393979 0.19600004 -0.0632493 0.28431565 -0.12021171 0.24702412 -0.075284615 0.27020052 -0.11614246 -0.16468258 0.071614675 0.03922066 -0.0454508 -0.117189705 0.18799552 -0.16618454 0.06973893 -0.15206656 0.022281645 -0.11905678 0.03616072 0.04617173 -0.15138198 -0.18259737 -0.21864188 0.24287947 0.33798665 0.24476169 0.13566032 0.29936454 0.14146355 -0.2987559 -0.19136426 0.1752886 0.3730677 0.12080285 -0.10089395 0.019696675 0.45976812 -0.003046736 -0.034570184 0.39478374 0.027982468 -0.027040731 -0.50913966 -0.2541465 -0.07417031 -0.16151421 -0.093602434 0.15728848 0.30375308 0.40999112 -0.093549296 0.29611027 0.0067099803 -0.02251299 0.121403284 -0.13694416 -0.30131996 -0.11726989 0.3443418 0.14580175 0.07207722 0.3886153 0.054003246 0.14990884 0.015508495 0.11467198 -0.07801172 -0.17082311 0.36134425 0.296851 0.012825616 0.18506768 -0.13988565 0.35352904 -0.17168406 -0.009764194 -0.27235633 -0.116175115 0.023997324 -0.22294833 0.22709355 -0.10756011 -0.27562997 0.17664655 0.19063857 0.22992936 -0.13653803 -0.059619803 -0.18684688 -0.010863326 0.06806351
495 0.013125821 0.10346582 0.09336723 0.171442 0.1715623 -0.06444575 -0.17617981 -0.015781915 0.0884601 0.3900028 -0.069311745 0.47089607 0.15288484 0.09854139 -0.018818542 -0.41769502 -0.23265587 -0.24357408 -0.13312252 -0.17168878 0.29739356 0.12988916 0.292066 0.26757923 -0.17461969 0.41138753 0.21044062 0.04342627 0.050022114 -0.038376775 0.16959234 0.28230506 -0.28544238 -0.061197646 0.1504383 0.18755259 0.12722267 -0.27487528 0.0151494 -0.07292714 0.02625012 0.14905106 -0.10971409 0.2020884 0.16930388 -0.15937446 0.30738458 -0.06459357 0.041586813 0.23647803 -0.12789108 -0.32035762 -0.0055319145 -0.39099437 -0.33888066 -0.2155273 0.14443716 -0.047675222 0.0403588 -0.1335707 0.028345332 -0.19148465 -0.21311128 -0.061564874 0.37320766 -0.025014887 -0.35153407 -0.27959916 -0.19979513 -0.16654348 0.28856146 -0.06263557 0.3659068 -0.0018281873 -0.12323423 -0.003978367 -0.016214797 0.033618603 0.0064132954 -0.1570836 0.0126099605 0.013512781 0.17852788 -0.17116195 0.18301448 0.40207827 0.06435379 -0.40021998 -0.013828695 -0.07228038 -0.13227774 -0.055946875 0.36505458 0.5564637 0.3003661 -0.032304663 0.3509545 -0.40284196 0.13837667 0.009222242 -0.2704881 -0.078706264 0.15891056 0.17796494 -0.033437133 -0.36690414 0.27435705 0.42546675 -0.22604796 0.18364237 0.18328816 -0.11045759 0.31496412 0.055619013 0.30050036 -0.103617534 -0.03430247 0.4047691 -0.16470464 0.20304118 -0.11136251 0.0921701 0.14351854 -0.027637186 -0.17062111 0.58598995 0.089427575 -0.2746534
45 -0.1502684 -0.009496718 0.07633982 0.1983822 0.06452548 0.10585384 -0.10981861 0.02684206 -0.09817581 0.31048626 0.034290224 0.112472676 -0.023796853 -0.08191625 0.16689143 0.21825112 -0.20908108 0.10920449 0.014388755 0.16034575 0.29285586 0.2459391 -0.08139085 0.012336667 0.08907567 -0.007558736 -0.023119746 0.07798655 -0.29826793 0.08505091 -0.045094635 -0.35428393 0.057890967 0.22929911 0.32260996 0.24019185 -0.40345877 0.051995385 -0.14773707 -0.14913197 0.050258417 0.0015184626 -0.13648875 -0.05843519 0.17827325 0.40511125 0.14306095 0.5198067 -0.35947424 0.22328046 -0.14316754 -0.21854053 -0.25181514 0.07153884 -0.20550802 -0.110311694 0.008894365 0.019493971 0.002948385 -0.112080626 0.25654313 0.074481376 -0.092287436 -0.14289121 0.038998004 -0.02699508 -0.15337951 0.023349483 -0.16680281 0.4400833 0.18628009 0.118114404 0.14688568 -0.102713495 0.39239138 -0.4019143 0.31125274 0.09627341 -0.14553007 -0.076441325 -0.1847521 -0.20281017 -0.19042069 -0.32333228 0.07097475 0.40780857 0.11637928 -0.15832627 -0.1735845 0.056175593 0.6670774 -0.27437663 0.10799338 -0.0748367 0.3876829 0.067062296 0.14052439 0.08784898 -0.013931941 0.028275821 -0.039404742 -0.26299337 -0.362618 0.17998059 0.132743 -0.38180444 0.12801374 0.022317674 0.35157782 -0.13964477 -0.2983915 -0.15238704 0.28381616 0.21207596 -0.10078297 -0.029119782 -0.32641998 -0.011092823 -0.13059457 -0.2116089 0.16493279 0.02671387 0.40127635 -0.13385627 0.16573945 -0.32899666 0.005349006 0.31211743
82 -0.13692257 -0.052897543 -0.40587157 0.1370412 -0.27333176 0.12739629 0.4872687 0.031315424 0.026171707 0.36006466 -0.23385958 0.28721923 0.074638344 -0.14437069 0.050812345 -0.2716556 -0.13122556 -0.08881479 0.034930374 0.091926605 0.2748755 0.26912093 0.02633481 0.2104412 0.13049223 0.0023314874 -0.3860579 -0.11294784 -0.3116448 -0.16587839 0.20517306 -0.10659888 -0.0533861 -0.21910077 -0.13574453 0.19151852 0.20062836 0.15406395 0.21834986 -0.017844588 0.21332313 0.25704888 0.02536755 -0.22410248 -0.12523681 0.17344536 0.16442761 0.15221922 -0.19640513 -0.024434889 0.30684617 -0.20048453 -0.07445189 0.2066533 -0.31268007 0.1484313 0.19568174 0.021566566 -0.10475325 -0.2590767 0.23120058 -0.36655816 0.029960876 0.023998048 0.26181608 0.26815167 0.020368472 -0.029908815 0.09267076 0.09915584 -0.052967604 -0.4480122 0.19812325 -0.12045112 0.02619228 0.027261589 0.014393113 0.21939896 -0.1392689 -0.32915854 -0.06917066 -0.0036226183 -0.103073634 -0.12143723 0.23345846 0.30776513 0.07725666 -0.037386447 0.10120915 0.15533307 0.00889847 0.13323045 0.009543162 0.1980695 0.12557268 0.17911367 0.07212155 -0.28994656 0.1975079 -0.12355894 -0.10504132 -0.10741552 0.25528255 0.12716752 0.07805086 0.23245771 0.13886935 0.1992978 0.06943567 -0.107566275 -0.10972667 -0.015281351 -0.23658447 0.3772053 -0.20158897 -1.7513541e-05 0.0016847616 0.09038547 0.042198252 -0.09075901 0.18127371 -0.047270272 0.21330206 0.055653162 -0.17102987 -0.23071209 -0.002539485 0.19078706
412 0.23471719 0.27293983 0.18869537 -0.04864938 -0.16566555 0.32979506 0.308377 0.24555156 -0.095817216 0.049346242 0.16150592 0.26762024 -0.06526115 0.0009779304 -0.08230741 -0.098531224 0.06612172 -0.459839 -0.05153005 -0.23956636 0.5096232 0.048969742 -0.43717137 -0.09651222 0.07016156 0.16316032 0.046923887 -0.18466945 -0.014965639 0.108432785 -0.12147374 -0.1089079 0.0014797103 -0.37269637 -0.15366411 -0.08920556 0.10686278 0.12300985 -0.31426302 -0.21913983 -0.042578265 0.095821545 0.14953603 0.38678098 0.0018694481 0.3568956 -0.2946114 -0.15564942 0.26197907 0.031462844 -0.1967596 0.3203471 -0.0072227744 0.16835545 0.11593 0.031518538 0.1160355 0.10634943 -0.22964737 0.01753621 -0.1571262 0.09466319 -0.119061835 -0.08858812 -0.052133456 0.2985437 -0.30215803 -0.43195504 -0.14946745 -0.31220835 0.29423702 0.1449069 0.03266567 -0.4098589 0.55652106 -0.3123425 -0.14252129 0.0705833 -0.090163104 0.23841178 0.06062257 0.761271 0.12514226 0.03105931 -0.03415307 0.059820414 0.19921675 -0.28396523 0.32252064 0.18471497 0.5400194 0.1639278 0.3220407 0.1777122 -0.2133954 0.034248233 0.22403793 0.0050669424 0.45088583 0.12835404 -0.003210737 0.22928835 0.17032984 -0.14625478 0.08957187 -0.032618385 -0.011147654 0.012687277 0.5673771 0.16603571 -0.3463296 0.061730083 -0.025616167 0.15451954 -0.16066052 0.30939755 -0.03476457 -0.119084604 -0.15620002 -0.09991006 0.37935522 0.017497728 0.29047713 -0.4617957 -0.55498946 0.19700596 0.0090182 0.24380834
134 0.26794913 0.04767239 0.2500093 0.45310894 0.38915446 0.26526386 0.05722918 0.2901476 0.19756034 -0.29265872 0.26315257 0.04097962 0.066807896 -0.17597213 0.06746603 0.08527753 0.30496562 0.046915516 0.17754635 0.3926375 -0.05381039 0.39772776 -0.06401905 0.17079796 0.23692507 -0.15493847 -0.304838 0.038128603 -0.28587225 -0.08998982 0.0116815865 -0.1478191 -0.020170463 -0.18707512 -0.035134267 0.13228495 -0.26329625 -0.17367125 0.0016220474 -0.056856327 0.09307593 0.34515446 0.16647112 -0.040259153 0.029600792 0.052623875 0.26493257 0.010576133 0.09189522 0.23064613 -0.14813292 -0.4483218 0.17620304 -0.1543979 -0.40863314 0.16367337 -0.080093086 0.18786544 -0.11637974 -0.03286883 0.09732835 0.01296676 -0.19367093 0.0013874338 -0.08210333 -0.21973547 0.053853113 0.06037471 -0.23313017 -0.30966768 0.18160503 -0.12046436 0.009293884 -0.19805309 -0.031389292 0.076929994 0.18476541 0.1306572 -0.031026218 -0.1257357 -0.0051819924 0.20725308 -0.21348332 -0.19408678 -0.06355084 0.3228728 -0.16769141 -0.16235669 0.06914137 -0.19158259 0.4392387 0.18246074 -0.2222856 -0.27196157 0.07824605 0.41022065 0.19525816 -0.080759116 -0.043187674 0.03534067 0.14267524 -0.4763812 0.3668632 0.29422596 0.085668884 -0.14829019 0.3477448 0.062123884 0.18193671 0.16661014 0.0038876433 -0.15919434 -0.057098005 0.19780084 -0.28975612 0.14630097 -0.34927976 -0.044902604 0.36880648 -0.38353452 -0.15010247 0.12735909 0.2789119 0.09005113 -0.19360055 -0.08983958 -0.39024353 -0.1363253
18 0.17489126 -0.3638211 0.043826092 -0.00295647 -0.09883538 0.08474648 -0.14418787 -0.34057805 0.14159685 0.28041536 -0.26184338 0.11217544 -0.107223846 0.06736179 0.09972185 0.45903137 -0.43213177 -0.11018932 0.14960288 0.009355688 0.024825886 -0.109575294 0.075699806 -0.13600756 0.10910867 0.48296225 -0.21676533 -0.09788931 0.16243783 0.008556421 0.33446482 0.17499454 -0.23388988 0.27331778 0.19866091 0.09512906 -0.026895214 -0.24501613 -0.13472643 0.0047739167 -0.18216082 0.5584717 0.28716528 -0.036614772 -0.32223055 0.23076844 0.22484034 -0.22742285 0.22801657 -0.05412842 -0.058619935 0.195936 -0.16472289 -0.04105531 -0.060386304 0.25489223 0.23242041 -0.10780765 0.37185594 0.12899028 -0.09023838 -0.20310208 0.11642865 -0.113276675 -0.24231224 0.22884117 -0.0080139395 0.055676714 0.03842799 0.09634133 -0.19141714 0.15242063 0.288389 -0.1862815 0.049512725 0.13577151 0.014498209 -0.011233995 -0.23432408 -0.12656166 0.013485664 -0.23703462 -0.026002552 -0.31668875 -0.14916238 0.20397975 0.41502488 -0.39409468 0.11321189 -0.031181535 -0.024920074 0.2681093 -0.046374757 -0.1703171 -0.40844414 0.21887358 0.2489933 -0.060341273 -0.018369095 -0.03788852 -0.07594222 -0.057417993 0.14814521 -0.34389874 -0.05796481 -0.13216491 -0.07965555 0.16907044 -0.084300615 -0.0985422 -0.12301448 0.013976233 0.19902909 0.35301104 0.052279785 0.145664 -0.41516274 0.10715914 0.037675776 -0.114931315 0.03387553 -0.11240983 0.10798775 -0.24477457 -0.08964703 -0.054232977 -0.079634674 -0.01888874
547 -0.18167034 0.14681967 0.14117247 0.7675827 -0.009516125 0.07323282 -0.34414086 -0.48020184 0.2552092 0.13499366 -0.08388309 0.60402924 0.14913093 -0.24702398 -0.27009115 0.037599746 0.1973552 0.14305544 0.20889007 -0.021111563 -0.11228378 -0.20903057 0.08425612 -0.18286209 -0.03302381 0.22459282 -0.36246663 -0.27949557 0.2068023 0.032963928 0.3057147 -0.24136339 0.038308173 0.32107934 -0.093709946 -0.082548074 0.13265978 -0.026622005 0.044498235 0.19972281 0.37119594 0.1148127 -0.062437654 -0.21756731 -0.1165343 0.118550956 0.18597853 -0.32516447 -0.17513317 -0.07207656 -0.041453242 -0.17718746 -0.45857373 0.51665723 -0.1131053 -0.4216297 0.0027222142 -0.29891738 -0.41245773 -0.118792295 -0.47696745 0.0047206627 -0.1754449 -0.009905496 0.023626978 -0.12712331 -0.120310456 0.083354495 0.14670478 -0.091555074 0.12528127 0.48209903 0.36839864 0.28196266 -0.060638368 -0.1501477 -0.020846175 -0.145984 -0.022284513 0.11174922 -0.030801103 -0.31064332 -0.029361175 0.0068050427 -0.19661072 0.11103983 -0.15023634 -0.1507718 0.06701814 -0.4292379 0.09316751 0.27814552 -0.19526267 -0.42993736 -0.12916817 0.1901291 0.115010895 0.012759072 0.11000158 -0.079676226 0.11889192 0.3222987 0.2630422 -0.16209823 -0.10430951 -0.010235396 -0.015164259 0.078035764 0.030241942 -0.26959324 -0.4076422 0.27985948 -0.08070258 0.123014376 0.05763901 -0.006068081 -0.3017004 0.24544922 -0.5693754 -0.07398359 -0.12550314 0.1178445 0.38486835 -0.3040918 -0.14962183 -0.29757553 -0.27980238 -0.011519466
341 0.03554717 -0.213128 0.2601794 0.12431228 0.40888253 -0.13723056 0.16811748 -0.07293611 -0.050288424 -0.20962606 0.16006151 -0.09080404 0.2870918 0.17379892 0.06418437 -0.0133705055 0.0013349677 -0.29022196 0.002437706 0.16458853 -0.21388952 0.00959627 -0.21359377 0.030388158 0.72616327 -0.030585045 -0.009014482 -0.243684 0.034650408 -0.22702639 0.030588053 0.11292763 -0.2796388 -0.16899996 -0.40538236 0.17080642 -0.2811073 -0.05204265 -0.037453774 -0.24197946 0.04162297 0.22093554 0.015690926 -0.06863612 -0.3567251 0.16519117 0.056443248 -0.13064398 -0.08759977 0.22117257 -0.1384201 0.24270509 -0.35755065 0.1401046 -0.35947567 0.0069940756 -0.12044176 0.29086205 0.26675418 -0.448745 -0.019999428 0.12573652 -0.14086312 0.15770403 -0.20959166 0.09865084 -0.01090317 -0.40049145 -0.16766103 -0.17496954 0.13377045 -0.08583572 0.07867512 -0.15995064 0.4475326 -0.3431779 -0.1208762 0.5769218 -0.024415076 -0.09404448 -0.27789927 -0.44614938 -0.16897911 0.060086012 0.12496366 0.19357654 0.09136665 -0.52960163 -0.087119594 -0.1722336 0.29615313 0.033387 -0.14579643 -0.26278725 -0.03191941 -0.068486266 0.2797413 -0.2764068 0.014493187 -0.060928375 -0.1971715 -0.027921908 0.25691596 0.015686067 -0.1542934 0.097866155 0.05813983 0.11927633 -0.24941747 0.0143388575 0.09805861 0.14019798 0.20847642 0.05691246 -0.4424546 -0.22930755 -0.103965685 -0.022742465 -0.17178248 -0.14290386 -0.29841325 0.01584875 0.12309279 -0.041529093 0.123235315 0.26473925 0.13284734 -0.28407443
972 -0.12848137 0.29621044 -0.56315136 0.46404687 0.11371444 0.5940657 -0.11535671 -0.050181504 -0.3468241 0.32387158 0.14711547 0.18847753 -0.5557833 -0.33157524 0.5219626 -0.07937974 0.8770993 -0.4049883 -0.3444914 0.3362528 0.17586231 -0.22299197 -0.1516474 0.10144136 0.16069095 0.35144925 -0.265376 -0.028681051 -0.1359672 -0.13902341 0.06296988 -0.03278287 -0.117188215 -0.061433278 -0.24101867 0.3417037 -0.14180502 -0.28769106 0.1844254 0.14860953 -0.043110512 -0.25778416 0.19820306 -0.071920715 0.10996376 0.04828751 0.16029616 -0.28255203 0.4498377 0.10198466 0.16963486 0.041790854 -0.01545903 0.19705212 -0.0012977946 -0.03210831 -0.18803677 0.35972753 -0.3338878 0.008372798 -0.22864556 -0.18099752 -0.28663206 -0.007248767 0.38189706 0.027679712 -0.43424165 -0.16238396 -0.28469056 0.044887733 0.33661222 0.19014572 0.1900831 -0.09251817 0.112246476 0.04029962 0.10873224 0.36572236 0.052109517 -0.4680031 -0.17687626 0.48243088 -0.07726967 -0.2669635 0.12855342 -0.435553 0.011749358 -0.8941728 0.16754858 -0.0985048 0.353634 -0.42751816 -0.5088661 0.26575175 0.08864178 0.04822949 0.055753194 0.15699165 -0.008484658 -0.06438905 0.022061303 -0.4059953 -0.43440628 0.04736047 0.04281774 0.090033084 0.48797956 -0.04533036 0.030028144 0.0142695345 0.23103464 -0.17598894 -0.047197934 0.114211574 -0.3119881 -0.546237 -0.034390114 0.16944434 -0.017062733 -0.17264844 0.20492199 0.28208548 0.26678407 0.13643585 0.03416802 -0.1581672 0.15685473 0.004006498
29 -0.26071328 0.007838228 -0.0064695645 0.27163094 -0.14486402 -0.06792315 0.21124192 -0.03937457 -0.15278909 -0.093516245 0.015427297 0.08881235 0.0025903196 -0.34477302 -0.07003723 -0.26367593 -0.2712847 -0.25595814 -0.09096648 0.08134776 0.41506463 0.30570486 -0.06642082 0.0946566 -0.03217286 -0.10435525 -0.19441819 0.31255883 0.0923731 0.09806978 -0.038404364 0.3918205 0.08786959 0.07356157 -0.17621237 0.101103514 0.091524206 -0.06320602 0.07873563 -0.18545596 0.01042796 0.15792936 0.05915766 -0.280057 -0.14518815 0.21226768 0.21364327 -0.06146006 0.0021686186 0.46394002 -0.14806874 0.015919777 -0.3091431 0.04988721 -0.02763579 0.030658051 -0.09872068 0.14116664 -0.24192633 -0.19350669 0.09367633 -0.15548202 -0.0018599483 0.16651154 0.028492954 -0.07934584 0.08978359 -0.22246812 -0.05374538 -0.039410513 0.0017527072 -0.2560404 -0.25280043 0.017990833 -0.043070547 -0.018198991 0.14830254 0.093274534 0.1031347 -0.2590523 0.13546318 -0.4298936 -0.06888111 -0.36850587 0.010352012 0.21388681 0.11798132 -0.034803618 -0.011452932 0.07082046 0.36653835 0.1434422 0.28557742 -0.2715077 0.14331025 0.5154047 0.03378264 -0.014699633 0.059849888 0.11649549 -0.486074 0.23591834 0.37237257 -0.06925959 0.27636784 0.019017536 0.2530358 0.23730886 0.025372928 0.15994832 0.03552916 -0.021030761 -0.15295523 -0.13179682 -0.3171244 -0.19311246 0.035790723 -0.13084829 -0.07321161 -0.26476324 0.060130827 -0.00037407625 0.28869852 -0.21531881 -0.11219817 -0.1572009 -0.24538676 -0.36691642
171 -0.047398474 -0.27326247 0.034179844 0.12288213 -0.21316607 0.017631622 0.14939527 -0.3328029 -0.11016856 0.027502133 -0.080735 0.21881947 0.12728736 0.027498744 -0.02520216 0.19796893 0.22364396 0.20814995 -0.18457788 0.011969916 0.024208087 0.07371786 -0.032850947 0.24469846 0.00020370133 0.12553325 -0.12737735 -0.0640735 -0.1300753 0.171347 0.31350684 -0.1358875 0.12301373 -0.3895915 -0.16374032 -0.20604336 0.037883118 0.26219192 -0.06904619 -0.17949101 -0.019507589 0.0015775369 -0.28685665 -0.14611429 -0.4115791 -0.24081874 0.26790223 -0.37882885 0.24771547 0.39548486 -0.1814023 0.19994381 -0.06381169 0.09168967 0.0016688139 0.03585464 -0.04088938 0.049361706 -0.093224235 -0.44420013 0.07144884 -0.11334999 -0.15604554 -0.10830716 -0.13450132 -0.16977578 -0.2914188 -0.21696442 0.06584047 -0.061234962 0.030017707 -0.10117807 -0.035536967 -0.18333483 0.38787884 -0.12104067 0.19058484 0.1791441 0.138669 -0.023761785 -0.036807373 0.14794175 0.07317327 -0.11168529 -0.17983629 0.025232166 0.46408916 0.068604805 -0.21457519 -0.19172797 0.26301467 0.09293498 0.1608053 -0.09385033 0.2986044 -0.037094846 0.04374665 -0.18122534 0.45910013 0.25550768 0.081281774 -0.22979745 0.025226567 -0.3238269 -0.010127258 0.11201762 0.68364453 -0.25461385 0.050926566 0.31537285 -0.3095873 0.17296691 0.13733019 -0.34566194 0.039660983 -0.13403207 0.045143057 0.077659324 0.20617491 -0.58946186 0.034645416 -0.47934213 -0.25961098 -0.23369844 -0.30702263 -0.26789418 -0.031999268 -0.21327586
367 -0.03821879 -0.070493035 -0.04329873 -0.16475484 -0.039370626 0.027302703 -0.19640288 -0.2884845 0.036502793 0.09982183 -0.16408549 0.03172853 -0.13968307 0.13858849 0.15225703 -0.13470413 0.12869082 0.22170544 -0.22319835 -0.28040844 -0.046092827 0.12763222 0.107356936 0.16625461 0.28276274 0.05307321 0.093206376 -0.28567663 -0.5957944 0.025924752 0.2745702 -0.010959371 -0.3571998 -0.23101062 0.17737474 0.102828495 -0.39686313 -0.041485023 0.0627317 0.40041688 0.04967418 0.19038765 -0.33353138 -0.07797451 -0.3628219 0.35734338 0.04959049 -0.28814638 -0.039735876 0.20426108 -0.20389156 -0.17449601 0.058923524 -0.059213564 -0.23398714 0.03833125 0.038030937 0.06254424 -0.3515944 0.28476867 0.053631958 -0.124905266 0.06846594 -0.09687848 -0.030134715 0.0547161 -0.18686111 0.044358045 -0.48539197 -0.034390863 0.3229223 -0.1100512 0.30568734 0.18977019 -0.3242303 -6.898099e-05 -0.08020475 0.12851794 0.28612703 0.07176825 -0.06832193 -0.17247918 0.14073515 -0.16230272 -0.1590262 0.071918204 0.4170182 -0.4007825 0.1414318 0.18651241 0.03542067 0.28372598 -0.19457337 0.5706673 -0.071365006 -0.09255192 0.46869373 0.056205202 -0.09109114 0.2559641 0.021694854 0.11787212 0.08670012 -0.0152985165 -0.1586986 -0.086778946 -0.08024877 0.33180428 0.28209662 -0.00086893083 -0.4635633 0.06424516 0.23959081 0.019565634 -0.2604153 -0.055020407 -0.10725369 0.041095767 0.06067083 -0.42727464 -0.24578533 -0.050624184 -0.0024844692 -0.48979548 -0.15317324 -0.39265513 0.0163419 -0.12863803
420 -0.17392053 -0.08821822 0.4412314 -0.008084271 -0.032412414 -0.12491159 0.02672723 -0.5149559 0.09111748 -0.15391046 0.33204415 0.1920624 0.03755458 -0.21469764 0.43558675 -0.53348786 -0.0016965916 0.04418676 -0.054284178 0.19068685 -0.06729295 0.2678656 -0.29152283 -0.1648903 0.17717424 -0.20382027 0.26336536 -0.2283394 0.0094945915 0.35723788 0.29239044 0.30789053 -0.19608386 -0.011750488 -0.09557489 0.09983305 -0.34709656 0.013141211 -0.012540583 0.31153977 0.22885235 0.6449217 0.014266719 0.08381111 -0.46417993 -0.31502464 -0.036382064 0.104998626 0.0052931104 0.006836421 0.13257506 -0.14328639 -0.01792535 0.31209868 -0.07634791 0.12860772 -0.10597797 -0.030945318 -0.15289235 -0.5211221 -0.030719807 0.2419223 0.053281307 0.09333985 0.14132833 0.38052884 0.15841459 -0.24066259 -0.22458757 0.06512752 0.28045747 -0.09612734 0.26778474 -0.17968264 0.14835866 -0.23147467 -0.03342242 0.2142892 0.22236311 -0.0015552545 -0.08440628 -0.027542662 -0.45548072 -0.35919797 -0.20202862 0.35524794 0.10696841 0.14097309 -0.28836182 -0.4666795 0.073462114 -0.14666484 0.20500349 -0.3349369 -0.018881327 0.17698874 0.23064363 0.088042125 0.21444803 0.533217 -0.17167991 -0.15393405 0.30424544 0.19809817 0.33756006 0.22258961 -0.093808115 0.045403674 0.25724 -0.07212906 0.15143435 -0.06995643 -0.1422853 -0.024182385 0.019578192 0.011212382 0.10917494 0.32853338 0.13412927 -0.09053411 0.0031623289 0.21409309 0.13250928 0.07891863 -0.16095869 -0.25984225 0.019895408 -0.21347202
304 -0.09939607 -0.14844002 -0.28392413 0.010434199 -0.34375724 -0.03529784 0.41609168 -0.13429858 0.2253047 0.053689413 -0.12011462 0.30432245 0.01769263 0.4198055 -0.27709275 -0.17054215 -0.0063732713 0.03918282 0.036405038 0.06995328 0.13834357 0.047043357 -0.15129669 -0.17417328 0.029906528 -0.35096496 0.001650528 0.059171066 0.0010088539 0.03799982 0.1813663 -0.2005574 0.050419196 -0.1647113 0.10843617 0.11335441 0.29778108 0.35176727 -0.09717552 -0.11354976 0.31369764 0.44352078 0.24187627 0.05601849 0.17755628 0.17149332 0.15325297 0.09424815 0.11936802 0.53054166 0.39966154 0.12472384 -0.08784524 0.2343052 -0.12161926 0.097970665 0.06478334 0.19992197 -0.25916582 -0.13868408 0.025399134 -0.29601267 0.03576281 0.02662229 0.101032 -0.17792916 -0.16439112 0.11612751 0.13812731 0.03918961 0.14642291 -0.060615677 0.35481554 0.035837606 0.2630753 0.08531702 -0.13245171 0.18807185 0.060762312 -0.29493383 0.036595017 -0.044551417 -0.15545738 -0.18310869 -0.36206332 0.11266439 0.15238136 -0.16387974 -0.40502492 0.038430788 0.10118536 0.014476317 0.14654122 0.23389286 -0.18976618 0.3064004 -0.29527164 0.12748355 0.14261363 -0.22151779 -0.011254531 0.22680694 0.34173092 -0.076688364 -0.022602722 0.19835854 0.3756785 0.16843013 -0.03291795 -0.19488595 0.18623403 0.14108343 -0.18752506 0.23016374 -0.18003511 0.19120686 0.21178888 0.41608772 0.0494564 -0.46213558 0.035583455 0.03873449 0.049700882 -0.13274434 -0.38035908 -0.27467448 -0.07575457 0.012223591
330 -0.3090679 0.054846082 -0.1963838 0.052467655 0.34004 0.08452541 0.24394478 -0.1461538 -0.10878364 0.042906277 -0.22181343 0.064818986 0.34796366 -0.22584535 0.16275755 -0.21049641 -0.17311408 -0.07598518 -0.28505057 -0.16631766 -0.02297433 0.19094029 -0.21207379 -0.23561166 0.16871025 -0.306294 -0.111858465 0.38892913 -0.393969 -0.11641657 0.36277008 -0.060920835 -0.13162939 0.052699562 -0.24200967 -0.06342098 -0.041888747 -0.17848063 -0.20238483 0.05956612 0.0776655 0.25986686 -0.08377249 -0.34997377 -0.28912023 0.18166463 0.08054648 -0.07528439 -0.22746637 0.14430587 0.3261022 -0.20817913 -0.51209044 -0.07819259 0.017568793 0.22978787 0.03390844 0.16052198 0.03711435 -0.42846277 0.11285445 0.11228542 0.042583346 0.10573804 0.023995264 0.26707953 -0.08219846 0.030721074 -0.025394604 -0.1871412 -0.058490634 -0.012617439 0.5077271 -0.000247295 0.12336284 0.070461065 0.09883583 0.24364874 -0.0955775 0.15808386 -0.076552086 0.10734657 -0.19288036 0.10047848 -0.28655493 0.32758024 0.041093674 -0.24178721 0.05775681 -0.17983298 -0.022649381 -0.23830114 0.3344887 0.41743636 0.06230659 0.09316627 0.1116538 -0.43273857 -0.29422846 0.44092306 0.18008685 0.17419557 0.3221567 -0.13006942 -0.09602927 0.10719077 0.2672086 0.16742468 0.1407122 -0.024177616 0.18058385 0.24234463 -0.088798076 0.24095407 -0.057958852 -0.119089045 0.16119188 -0.07249166 0.10262021 -0.16862965 0.35358855 0.05112302 0.19971648 -0.07705287 -0.16067906 -0.036646593 -0.1570263 0.0006042775
5 0.1486185 -0.17236131 -0.3423999 0.21406879 -0.14108822 0.30218118 0.34897426 -0.27944666 -0.093326114 0.10146847 -0.034498338 0.18031481 -0.22496016 -0.004939419 0.2720826 0.086884715 -0.2270603 -0.66969645 -0.14335363 0.13367078 0.2064759 0.023985285 0.03434177 -0.0093721775 0.1841406 0.07765925 -0.053692017 0.085070945 -0.006100967 -0.22647864 0.061382975 -0.43582118 -0.24922927 -0.1370628 0.100949965 -0.02705643 0.1019383 0.20119348 -0.06940181 0.23845465 0.10730151 0.18625964 0.053969614 0.035542574 -0.022963481 0.032962363 -0.027552953 -0.0688267 0.010646448 0.090039596 0.23828055 0.16902313 -0.009718989 0.21293 -0.37882397 -0.17072812 -0.17510876 -0.21784656 0.07762168 0.13215308 -0.1279755 0.062189333 -0.19444373 0.035256185 0.09879386 0.13683693 -0.13742667 0.2065722 -0.26096225 -0.18199015 0.15688318 -0.05855597 -0.16130579 -0.02586244 0.40951988 -0.27418283 -0.16512804 0.12369603 0.02719273 -0.041879453 0.104033604 0.18411978 0.11378395 0.091529384 -0.22460076 0.2362111 0.33755535 -0.24810213 -0.37980354 0.2663114 0.3394146 0.14652759 0.09535019 0.056226123 -0.4908083 0.08633364 -0.007730228 -0.076130584 0.113534756 0.18525387 -0.344609 0.3359587 -0.028806508 -0.0005945051 -0.22302836 -0.085237086 -0.18520476 0.179833 -0.092738785 0.18162635 -0.05172827 -0.066257186 -0.039417244 0.089563146 0.08019341 0.33598062 -0.11255075 0.2553509 0.575523 -0.12765503 -0.11609482 0.29605567 -0.07525428 -0.28034237 -0.52294075 -0.22201717 -0.085537784 0.31890705
933 -0.1652697 0.020244155 -0.06506293 -0.029132022 0.061951146 -0.2572252 -0.12457577 -0.21173666 -0.041028697 0.27333948 0.048680108 0.37682778 0.010973488 -0.046005983 0.015159103 -0.25445166 -0.18079282 0.19760351 0.046249557 0.14144851 -0.14300744 -0.16829127 0.045434076 -0.14542404 0.23258327 0.16544026 -0.17843482 -0.38907737 0.27602518 0.13131383 0.26990238 -0.04709091 -0.015264304 0.0037350436 0.38710153 -0.14186665 -0.12587598 -0.17113574 0.20861411 0.13585268 0.050667103 0.25053924 -0.12060959 -0.084822215 0.040646255 -0.2549002 0.18349342 -0.048664957 -0.18109237 0.30468032 -0.2044263 0.12054153 -0.3320742 0.03629788 -0.39736095 0.10142747 0.28016198 0.12810013 -0.120785296 -0.1854718 -0.05662342 0.2519006 -0.03263233 -0.021991786 0.043821927 0.13916542 -0.19217509 0.066300064 0.039906103 0.008749875 0.30458823 0.18216817 -0.072210684 -0.050270393 -0.058991764 -0.08261233 0.02748337 0.2534544 -0.07092094 -0.26509783 -0.2750693 0.011319037 0.019884268 -0.2766473 -0.07310942 0.30972317 0.044015832 -0.09700751 -0.008205056 -0.21597357 -0.04123995 -0.06329502 0.31587058 0.06693248 -0.0329733 0.18476316 0.10796781 0.07755336 -0.024041317 0.2486298 -0.18452664 0.16405924 0.29627496 -0.28355378 -0.4267396 -0.27228284 -0.06443752 -0.08399382 0.124240935 0.4302352 0.19950776 -0.08036577 0.09647378 0.05098149 0.0337 0.10873053 -0.13614653 0.07324832 -0.31758055 -0.39496285 -0.06655143 -0.17383258 0.4101838 -0.08379295 -0.38013962 -0.04597848 0.036283515 -0.06066179
3 -0.21016686 0.09556459 -0.15397324 0.13812973 -0.06586798 0.029296678 0.32651347 -0.049981717 0.2970218 0.060784407 0.012809752 0.19038473 0.18026088 -0.11077749 0.1301449 -0.30974406 0.11128731 -0.52098316 -0.5859928 0.12634158 0.011816123 -0.09905151 -0.049495623 -0.10702827 0.053986393 0.09368003 -0.033225957 0.1921828 -0.26041245 -0.27788618 0.025956756 -0.4740817 0.06546721 -0.09850469 0.28626916 -0.26435938 -0.021356372 -0.15412924 0.009979633 0.19563043 0.22243105 -0.018243276 0.3183907 0.21361355 0.0050059045 0.044934634 -0.16543922 -0.09439586 -0.0938339 0.05316642 0.34280694 0.01562571 -0.012560725 0.177292 -0.045283254 -0.35908315 -0.17099936 -0.08843669 0.14985405 0.26771575 -0.3362237 0.07575317 -0.16350147 -0.073288456 -0.02229241 0.41403714 -0.2733649 0.23849575 -0.5509164 -0.39272866 0.15457486 0.11440915 -0.063950695 -0.27483165 0.25138757 -0.25511363 -0.05900566 0.39201874 0.06381231 0.22934826 0.1789476 0.025193587 -0.082189806 0.13784564 0.0035247928 0.21975355 0.110848896 -0.14108253 -0.2972176 0.29630673 0.20905796 0.09981114 0.17174764 -0.016918205 -0.38977104 0.17175353 0.08421048 -0.04084925 0.026260514 0.03938966 -0.412225 0.14797212 0.033067513 -0.27442136 -0.16176 -0.15122686 0.037931256 -0.094709314 0.17527872 0.3882724 -0.18937537 -0.00950575 0.062935 0.07839335 0.13093331 0.597228 0.12918566 0.15071678 0.027073765 -0.45947158 0.003861104 -0.09833857 -0.12825814 -0.19330834 -0.56734 -0.022289114 0.088860594 0.32853156
233 0.22234456 -0.19015467 0.045392767 0.114936404 0.027863348 0.20179296 -0.14556476 0.074491434 0.20805983 0.19417849 -0.042015158 0.124001995 -0.18074071 -0.3191958 -0.12615842 0.5132956 -0.10050237 0.110390596 0.3294885 -0.30262494 0.05781039 0.18388563 -0.045543335 -0.3287256 -0.16866292 0.018400017 0.054551672 0.26342127 0.016592607 0.18520202 0.075225174 -0.078202486 -0.0998449 0.03198351 -0.26762053 0.2129 0.00848807 -0.7257342 0.23869172 -0.28372046 -0.39566818 0.33993953 -0.13758175 0.10308154 0.4123084 0.16904691 0.25369102 0.27073702 0.30184418 0.14702076 -0.042610895 -0.25081313 0.02769877 0.33066523 -0.4054339 0.23869637 -0.3282113 0.13907804 0.10302371 -0.45065767 0.12921293 0.04284865 -0.32488528 -0.07288409 0.1931401 0.33416364 -0.22294201 0.24075812 -0.22691852 0.2969656 0.23979002 0.10842147 0.21689968 0.15148348 -0.11806525 -0.46397516 -0.14592046 0.0020422947 0.048625533 -0.5952597 -0.08607753 0.0519791 0.07926382 0.26889762 -0.38934445 0.14968984 0.05186918 -0.11940868 0.30131134 -0.5032143 0.422071 -0.15384051 0.25083682 -0.04168869 -0.095789954 0.38250595 0.5518529 -0.19835834 0.047847893 0.013539755 0.35603645 -0.29397723 -0.17030409 0.14928436 0.23794743 -0.3227494 -0.04805428 -0.047524303 -0.30832073 0.23196152 0.1531875 0.17566238 0.05935358 -0.04191282 0.046129048 0.17485143 0.0121443095 -0.17657322 -0.08748153 -0.02738088 0.10159185 -0.10147636 -0.09417027 0.04510899 0.06534137 0.12537684 -0.14876196 0.30874777
75 0.021517813 0.12619434 0.007752431 -0.3069372 0.06377334 0.2607037 -0.057440784 -0.12131911 -0.23164405 0.23782413 -0.19961663 0.13460413 -0.065369695 0.013494894 -0.264768 -0.0027434323 -0.34490114 -0.013831225 -0.31535605 0.16745698 0.004956978 -0.1118592 -0.35130584 -0.14385687 -0.012139977 0.09521812 -0.17598715 0.015221759 0.05100684 0.21993257 0.16544807 0.1453691 -0.36809096 -0.25962666 0.011364423 -0.08966494 -0.07139889 -0.48104224 -0.027548354 -0.20687257 -0.19202483 0.4278835 -0.161709 -0.20633782 0.039965626 0.35258278 0.24061237 -0.248322 0.47661224 0.14368439 -0.04677796 0.07098003 -0.24193898 -0.13405381 0.37403756 0.13888249 0.13736892 0.020708602 -0.037142757 0.046290305 0.020249575 -0.03520746 0.11600936 -0.43558094 -0.49646416 0.2344143 0.1933237 -0.16711992 -0.10188527 -0.2751707 -0.2661481 -0.28204024 0.3308685 -0.17932223 0.10535331 -0.12621963 0.043540206 0.20355062 0.24512023 -0.4046275 -0.25681192 -0.049333077 -0.09467517 -0.15854333 0.029152574 0.22038847 0.28326362 -0.13355532 -0.115763366 -0.11105206 0.08949322 0.2442183 0.016808556 -0.07372766 -0.3105162 -0.06266142 0.4643229 -0.10225735 0.26248932 0.15746798 -0.029679637 -0.092069626 -0.0062835733 -0.13465603 -0.029224442 -0.22593533 0.21812628 0.19910249 0.12296335 -0.025719604 -0.38498178 -0.13872682 0.19730791 0.1957501 -0.09336588 0.21129571 -0.80127394 0.16878745 -0.2236877 -0.06309782 -0.083739154 0.11865826 -0.16666152 0.22137046 -0.047765825 0.16196366 0.099793464 -0.1381763
66 -0.171277 -0.15809554 -0.16430765 0.003080516 0.047262095 -0.27432314 0.28289273 -0.037156526 0.18039659 0.23185255 -0.29500327 0.018579423 0.22757383 0.033386532 0.57498306 0.29089522 -0.15543382 -0.18502119 0.23256212 0.63033104 0.16178061 0.1494353 -0.15827549 0.43021217 -0.047450874 0.25423133 -0.23411337 0.24160965 0.1653502 -0.19802737 0.229053 0.028697688 -0.19298781 0.43620765 0.09982779 -0.057164095 0.39726132 -0.13359475 -0.27420142 0.15359232 0.06456114 0.3586593 -0.096977 -0.082108155 0.26389766 0.3655897 0.07973869 -0.17147781 -0.33012038 -0.05471141 -0.13116956 -0.099505246 0.33651704 0.51520854 -0.1888874 0.06871094 -0.37996495 0.4497119 0.2742216 -0.2627894 -0.0712108 0.27642974 -0.1673212 -0.50452304 -0.09094051 0.035276726 0.14396273 0.24378864 -0.024265673 0.10589644 0.33316472 -0.1629324 -0.03305561 -0.2620557 0.1366479 -0.4477242 0.3532852 0.26892436 0.2562371 -0.32243174 0.08077174 -0.34059477 -0.12121011 0.12042974 -0.22782747 -0.26885352 -0.20598377 -0.13859245 0.50747865 -0.2321811 0.2914103 0.06816856 -0.1116335 0.17307782 0.009889083 0.16630556 0.206797 0.061897654 0.16010769 -0.027047826 0.41263226 -0.10952789 -0.17565323 -0.037897076 0.082909755 -0.14182873 -0.14392075 -0.07863128 0.20604046 0.49876618 -0.083309405 0.0780042 0.1357407 -0.31634098 0.0055083106 -0.06077364 -0.25220445 0.2385242 0.22197588 0.5093748 0.051723447 0.14494817 0.07384424 -0.08512538 -0.215738 0.20485502 0.026901111 -0.3091959
